{"learner":{"attributes":{"scikit_learn":"{\"_estimator_type\": \"regressor\"}"},"feature_names":["Store","Dept","Temperature","Fuel_Price","CPI","Unemployment","Type","Size","month"],"feature_types":["int","int","float","float","float","float","int","int","int"],"gradient_booster":{"model":{"gbtree_model_param":{"num_parallel_tree":"1","num_trees":"100"},"iteration_indptr":[0,1,2,3,4,5,6,7,8,9,10,11,12,13,14,15,16,17,18,19,20,21,22,23,24,25,26,27,28,29,30,31,32,33,34,35,36,37,38,39,40,41,42,43,44,45,46,47,48,49,50,51,52,53,54,55,56,57,58,59,60,61,62,63,64,65,66,67,68,69,70,71,72,73,74,75,76,77,78,79,80,81,82,83,84,85,86,87,88,89,90,91,92,93,94,95,96,97,98,99,100],"tree_info":[0,0,0,0,0,0,0,0,0,0,0,0,0,0,0,0,0,0,0,0,0,0,0,0,0,0,0,0,0,0,0,0,0,0,0,0,0,0,0,0,0,0,0,0,0,0,0,0,0,0,0,0,0,0,0,0,0,0,0,0,0,0,0,0,0,0,0,0,0,0,0,0,0,0,0,0,0,0,0,0,0,0,0,0,0,0,0,0,0,0,0,0,0,0,0,0,0,0,0,0],"trees":[{"base_weights":[1.1358163E-4,-3.0142107E3,2.004535E4,4.823359E3,-5.322623E3,2.8596958E3,3.905486E4,-7.6968613E3,1.0335269E4,-1.0446988E4,-3.6509685E3,8.524538E3,-1.0067715E4,5.9215066E4,8.124447E2,-1.0594948E4,-6.774152E2,2.3553604E4,7.9336216E3,-1.332438E4,-8.31338E3,-5.5018096E3,4.3969443E3,3.2192979E3,2.4080281E4,-1.2405507E4,-4.495009E3,5.365536E4,8.723491E4,6.348549E3,-7.2286694E3,-5.283617E3,-1.1597937E4,4.8590146E3,-2.5042224E3,7.4249517E3,3.9146094E4,6.4776772E3,2.2427543E4,-1.481855E4,-1.1228768E4,3.521395E4,-1.0615698E4,-2.7563037E3,-9.94896E3,4.6555266E4,-9.0263367E2,-1.3898442E3,2.4186795E4,2.6917873E4,9.778436E3,-7.2456123E3,-1.3213551E4,-1.334684E3,-1.0585883E4,6.798142E4,3.2662475E4,6.683614E4,9.799726E4,2.0888521E4,3.649772E3,-4.7840356E3,-1.5531221E4,-2.4907817E3,-6.921655E2,-3.7101162E3,-1.2139833E3,3.4807942E3,2.1810117E2,5.499276E2,-9.904771E2,1.9604668E3,9.347967E3,1.7639748E4,1.031099E4,2.5202734E3,-3.2251562E3,4.848234E3,8.720052E3,-4.0533484E3,-4.660519E3,-2.5550325E3,-3.8923103E3,2.7355895E4,9.217602E3,1.861313E3,-3.4666252E3,-2.097644E3,1.3231773E4,-2.2471924E3,-3.4356711E3,1.1879452E4,2.8448498E4,9.7356805E2,-2.3857534E3,9.271347E2,-3.068081E3,3.382769E3,9.047291E3,5.7597085E3,1.1529871E4,4.0983135E3,1.7595228E3,-1.129857E3,-2.6953923E3,-3.576281E3,-4.7016367E3,1.6679883E2,-3.321354E3,-3.5627925E3,-2.6946099E3,1.5075462E4,3.0932889E4,1.5765378E4,8.7618545E3,3.1227578E4,1.8117676E4,3.8933203E4,2.7642873E4,7.549678E3,5.934571E3,4.34698E2,2.4674114E3,-8.5461444E2,-2.0026022E3,-4.7376973E3,-4.1594946E3],"categories":[],"categories_nodes":[],"categories_segments":[],"categories_sizes":[],"default_left":[0,0,0,0,0,0,0,0,0,0,0,0,0,0,0,0,0,0,0,0,0,0,0,0,0,0,0,0,0,0,0,0,0,0,0,0,0,0,0,0,0,0,0,0,0,0,0,0,0,0,0,0,0,0,0,0,0,0,0,0,0,0,0,0,0,0,0,0,0,0,0,0,0,0,0,0,0,0,0,0,0,0,0,0,0,0,0,0,0,0,0,0,0,0,0,0,0,0,0,0,0,0,0,0,0,0,0,0,0,0,0,0,0,0,0,0,0,0,0,0,0,0,0,0,0,0,0],"id":0,"left_children":[1,3,5,7,9,11,13,15,17,19,21,23,25,27,29,31,33,35,37,39,41,43,45,47,49,51,53,55,57,59,61,63,65,67,69,71,73,75,77,79,81,83,85,87,89,91,93,95,97,99,101,103,105,107,109,111,113,115,117,119,121,123,125,-1,-1,-1,-1,-1,-1,-1,-1,-1,-1,-1,-1,-1,-1,-1,-1,-1,-1,-1,-1,-1,-1,-1,-1,-1,-1,-1,-1,-1,-1,-1,-1,-1,-1,-1,-1,-1,-1,-1,-1,-1,-1,-1,-1,-1,-1,-1,-1,-1,-1,-1,-1,-1,-1,-1,-1,-1,-1,-1,-1,-1,-1,-1,-1],"loss_changes":[1.9042314E13,4.956694E12,1.3458244E13,4.3017002E12,1.8128458E12,1.5846012E12,1.5080224E13,3.8760743E11,1.3737704E12,3.194728E11,2.3770038E12,1.2415405E12,8.583676E10,1.9905789E12,3.0066547E11,7.178145E10,5.633698E10,1.6730955E12,7.7277037E11,6.923066E10,2.9961646E12,1.5840688E12,6.666487E12,1.0843588E12,1.5500653E11,1.9266994E10,3.7521703E10,3.212751E12,4.5865134E11,1.5688434E11,5.582281E10,1.9246215E10,6.582842E10,3.8500663E10,1.4489977E10,6.891926E10,3.1552596E11,1.1029507E12,1.3862214E11,1.1907105E10,4.358E10,3.745579E11,4.48855E11,1.5923858E13,1.8292775E11,1.1152639E12,7.7514093E11,3.6424545E11,1.555337E11,2.829758E11,9.568104E9,3.7842268E9,1.2569674E10,2.3661206E10,1.2713574E9,3.951586E12,2.9666574E11,1.7016658E11,2.4572435E11,2.465071E9,3.3968976E10,7.7737247E9,5.337907E7,0E0,0E0,0E0,0E0,0E0,0E0,0E0,0E0,0E0,0E0,0E0,0E0,0E0,0E0,0E0,0E0,0E0,0E0,0E0,0E0,0E0,0E0,0E0,0E0,0E0,0E0,0E0,0E0,0E0,0E0,0E0,0E0,0E0,0E0,0E0,0E0,0E0,0E0,0E0,0E0,0E0,0E0,0E0,0E0,0E0,0E0,0E0,0E0,0E0,0E0,0E0,0E0,0E0,0E0,0E0,0E0,0E0,0E0,0E0,0E0,0E0,0E0,0E0,0E0],"parents":[2147483647,0,0,1,1,2,2,3,3,4,4,5,5,6,6,7,7,8,8,9,9,10,10,11,11,12,12,13,13,14,14,15,15,16,16,17,17,18,18,19,19,20,20,21,21,22,22,23,23,24,24,25,25,26,26,27,27,28,28,29,29,30,30,31,31,32,32,33,33,34,34,35,35,36,36,37,37,38,38,39,39,40,40,41,41,42,42,43,43,44,44,45,45,46,46,47,47,48,48,49,49,50,50,51,51,52,52,53,53,54,54,55,55,56,56,57,57,58,58,59,59,60,60,61,61,62,62],"right_children":[2,4,6,8,10,12,14,16,18,20,22,24,26,28,30,32,34,36,38,40,42,44,46,48,50,52,54,56,58,60,62,64,66,68,70,72,74,76,78,80,82,84,86,88,90,92,94,96,98,100,102,104,106,108,110,112,114,116,118,120,122,124,126,-1,-1,-1,-1,-1,-1,-1,-1,-1,-1,-1,-1,-1,-1,-1,-1,-1,-1,-1,-1,-1,-1,-1,-1,-1,-1,-1,-1,-1,-1,-1,-1,-1,-1,-1,-1,-1,-1,-1,-1,-1,-1,-1,-1,-1,-1,-1,-1,-1,-1,-1,-1,-1,-1,-1,-1,-1,-1,-1,-1,-1,-1,-1,-1],"split_conditions":[9E1,1.4E1,1.51315E5,1.03681E5,1.03681E5,9.6E1,9.6E1,5.7197E4,3E0,3.7E1,7.2E1,2E0,2E0,9.5E1,9.8E1,3E0,1.3152791E2,2E0,1.3E1,5.7197E4,3.9E1,4.1E1,7.4E1,9.5E1,4.4E1,1E0,9.8E1,9.3E1,2.00898E5,5E0,9.9E1,2E0,1.3E1,6E0,3E0,2.19622E5,1.3152791E2,1.2E1,1.84109E5,6E0,2.4E1,4E0,4.1E1,3.8E1,5E1,1.1E1,8.3E1,9.3E1,9.3188E4,3.9E1,9.3E1,9.7E1,9.8E1,4.4E1,8.476E0,9.2E1,5E0,2E0,5E0,6.228E0,2.0344759E2,2.1E1,1.1E1,-2.4907817E3,-6.921655E2,-3.7101162E3,-1.2139833E3,3.4807942E3,2.1810117E2,5.499276E2,-9.904771E2,1.9604668E3,9.347967E3,1.7639748E4,1.031099E4,2.5202734E3,-3.2251562E3,4.848234E3,8.720052E3,-4.0533484E3,-4.660519E3,-2.5550325E3,-3.8923103E3,2.7355895E4,9.217602E3,1.861313E3,-3.4666252E3,-2.097644E3,1.3231773E4,-2.2471924E3,-3.4356711E3,1.1879452E4,2.8448498E4,9.7356805E2,-2.3857534E3,9.271347E2,-3.068081E3,3.382769E3,9.047291E3,5.7597085E3,1.1529871E4,4.0983135E3,1.7595228E3,-1.129857E3,-2.6953923E3,-3.576281E3,-4.7016367E3,1.6679883E2,-3.321354E3,-3.5627925E3,-2.6946099E3,1.5075462E4,3.0932889E4,1.5765378E4,8.7618545E3,3.1227578E4,1.8117676E4,3.8933203E4,2.7642873E4,7.549678E3,5.934571E3,4.34698E2,2.4674114E3,-8.5461444E2,-2.0026022E3,-4.7376973E3,-4.1594946E3],"split_indices":[1,1,7,7,7,1,1,7,1,1,1,6,6,1,1,1,4,1,1,7,1,1,1,1,0,6,1,1,7,0,1,1,1,1,1,7,4,1,7,0,1,0,1,1,1,8,1,1,7,0,1,1,1,0,5,1,0,0,0,5,4,0,8,0,0,0,0,0,0,0,0,0,0,0,0,0,0,0,0,0,0,0,0,0,0,0,0,0,0,0,0,0,0,0,0,0,0,0,0,0,0,0,0,0,0,0,0,0,0,0,0,0,0,0,0,0,0,0,0,0,0,0,0,0,0,0,0],"split_type":[0,0,0,0,0,0,0,0,0,0,0,0,0,0,0,0,0,0,0,0,0,0,0,0,0,0,0,0,0,0,0,0,0,0,0,0,0,0,0,0,0,0,0,0,0,0,0,0,0,0,0,0,0,0,0,0,0,0,0,0,0,0,0,0,0,0,0,0,0,0,0,0,0,0,0,0,0,0,0,0,0,0,0,0,0,0,0,0,0,0,0,0,0,0,0,0,0,0,0,0,0,0,0,0,0,0,0,0,0,0,0,0,0,0,0,0,0,0,0,0,0,0,0,0,0,0,0],"sum_hessian":[3.15159E5,2.73964E5,4.1195E4,6.2332E4,2.11632E5,2.1636E4,1.9559E4,1.9053E4,4.3279E4,5.2055E4,1.59577E5,1.5044E4,6.592E3,1.2807E4,6.752E3,1.3485E4,5.568E3,6.653E3,3.6626E4,2.2162E4,2.9893E4,1.2974E5,2.9837E4,1.1219E4,3.825E3,4.643E3,1.949E3,1.0689E4,2.118E3,3.999E3,2.753E3,2.143E3,1.1342E4,1.381E3,4.187E3,3.271E3,3.382E3,3.3284E4,3.342E3,1.2934E4,9.228E3,1.501E3,2.8392E4,8.0218E4,4.9522E4,3.331E3,2.6506E4,9.198E3,2.021E3,3.191E3,6.34E2,6.3E2,4.013E3,1.284E3,6.65E2,6.352E3,4.337E3,7.34E2,1.384E3,6.25E2,3.374E3,2.128E3,6.25E2,1.063E3,1.08E3,1.0293E4,1.049E3,5.24E2,8.57E2,6.5E2,3.537E3,3.154E3,1.17E2,6.59E2,2.723E3,2.9942E4,3.342E3,1.721E3,1.621E3,4.586E3,8.348E3,3.616E3,5.612E3,1.1E2,1.391E3,1.502E3,2.689E4,7.3569E4,6.649E3,1.8794E4,3.0728E4,2.913E3,4.18E2,1.6688E4,9.818E3,6.104E3,3.094E3,6.4E2,1.381E3,1.912E3,1.279E3,3.17E2,3.17E2,2.11E2,4.19E2,2.634E3,1.379E3,1.076E3,2.08E2,3.65E2,3E2,4.223E3,2.129E3,6.4E2,3.697E3,1.06E2,6.28E2,2.12E2,1.172E3,1.24E2,5.01E2,2.279E3,1.095E3,1.053E3,1.075E3,5.33E2,9.2E1],"tree_param":{"num_deleted":"0","num_feature":"9","num_nodes":"127","size_leaf_vector":"1"}},{"base_weights":[9.9772227E-1,-2.1095408E3,1.4036673E4,3.0935168E3,-3.9603113E3,4.5007554E3,3.1173566E4,-5.6567476E3,6.963656E3,-6.7147144E3,-1.912168E3,9.187614E3,-5.881699E3,4.7144355E4,1.1312626E3,-2.099931E3,-8.443326E3,1.649342E4,5.4952046E3,-4.4949917E3,-8.867563E3,2.5786414E4,-4.428615E3,5.3145855E4,7.593606E3,5.6187134E3,-6.3656577E3,4.3062727E4,6.773605E4,4.9783906E3,-4.458225E3,2.9169658E3,-3.0946094E3,-4.903583E3,-9.800741E3,5.200921E3,2.7410523E4,9.053233E3,2.1302415E3,-9.918504E3,-3.112115E3,-1.0672211E4,-7.146641E3,3.2007543E4,1.0753714E4,-7.722272E3,5.7471857E2,4.902132E4,2.194686E4,4.6440234E3,2.1431867E4,1.2364269E4,-4.877213E3,-8.939901E3,-4.195663E3,5.465424E4,2.6197232E4,7.644884E4,5.766196E4,1.5700206E4,3.2320251E3,-2.4738374E3,-1.0827321E4,4.1364033E3,3.8046506E2,-1.4157046E3,-6.002168E2,-1.9514688E3,-1.6326494E1,-3.1944592E3,-2.2944624E3,1.2200356E3,6.2519263E3,5.931653E3,1.0713275E4,1.78551E1,3.6912314E3,-3.5995715E2,1.0819976E3,-2.6113088E3,-3.295014E3,-1.8605605E3,-8.8859406E1,-3.692672E3,-2.8584873E3,-1.2121786E3,-3.3222517E3,1.1854134E4,7.352854E3,1.15973076E2,4.6504E3,-3.2138596E3,-2.1194075E3,7.676911E3,-7.253875E2,1.7344012E4,1.0674738E4,-7.840215E2,3.4791626E3,-5.885087E2,6.943757E3,2.8227163E3,4.15467E3,-1.0280499E3,-3.1808147E3,-2.4111392E3,-3.2138552E3,-6.4608044E2,-2.3128792E3,1.2205123E4,2.4744512E4,1.1200315E4,7.352415E3,2.6344783E4,1.6980857E4,1.9045406E4,1.500406E4,4.165522E3,5.2400215E3,1.4291631E3,-4.269219E2,-2.9446213E2,-1.2387312E3,-3.3108606E3,-2.8405925E3],"categories":[],"categories_nodes":[],"categories_segments":[],"categories_sizes":[],"default_left":[0,0,0,0,0,0,0,0,0,0,0,0,0,0,0,0,0,0,0,0,0,0,0,0,0,0,0,0,0,0,0,0,0,0,0,0,0,0,0,0,0,0,0,0,0,0,0,0,0,0,0,0,0,0,0,0,0,0,0,0,0,0,0,0,0,0,0,0,0,0,0,0,0,0,0,0,0,0,0,0,0,0,0,0,0,0,0,0,0,0,0,0,0,0,0,0,0,0,0,0,0,0,0,0,0,0,0,0,0,0,0,0,0,0,0,0,0,0,0,0,0,0,0,0,0],"id":1,"left_children":[1,3,5,7,9,11,13,15,17,19,21,23,25,27,29,31,33,35,37,39,41,43,45,47,49,51,53,55,57,59,61,63,65,67,69,71,73,75,77,79,81,83,85,87,89,91,93,95,-1,97,99,101,103,105,107,109,111,113,115,117,119,121,123,-1,-1,-1,-1,-1,-1,-1,-1,-1,-1,-1,-1,-1,-1,-1,-1,-1,-1,-1,-1,-1,-1,-1,-1,-1,-1,-1,-1,-1,-1,-1,-1,-1,-1,-1,-1,-1,-1,-1,-1,-1,-1,-1,-1,-1,-1,-1,-1,-1,-1,-1,-1,-1,-1,-1,-1,-1,-1,-1,-1,-1,-1],"loss_changes":[9.335963E12,2.6382036E12,6.7319444E12,2.4343384E12,1.1400207E12,1.2880649E12,7.06643E12,2.1846799E11,6.9737015E11,4.118007E11,8.0787166E12,1.2774593E12,4.5858357E10,8.052854E11,1.0996945E11,4.8339108E10,5.934062E10,8.201718E11,5.17043E11,3.1822617E11,1.3579295E11,9.024082E11,1.7509262E12,4.907008E10,7.1828124E11,2.3636984E10,4.4098224E10,1.5680154E12,1.3506393E11,5.666489E10,2.632502E10,2.8714082E10,1.4353359E10,2.6618135E10,1.6213934E10,5.794929E10,2.1378027E11,6.137217E11,1.091384E11,1.1050615E10,2.9419648E11,3.986083E10,2.731783E11,3.8326816E11,1.3913666E11,1.2592559E11,3.157656E12,6.0801286E10,0E0,7.321869E11,1.2402308E11,7.603405E8,1.0515103E9,5.696717E9,3.0759854E10,1.8459908E12,6.0639937E10,1.8655635E11,2.9825171E10,1.1170202E9,1.858996E10,3.9259535E9,3.598336E7,0E0,0E0,0E0,0E0,0E0,0E0,0E0,0E0,0E0,0E0,0E0,0E0,0E0,0E0,0E0,0E0,0E0,0E0,0E0,0E0,0E0,0E0,0E0,0E0,0E0,0E0,0E0,0E0,0E0,0E0,0E0,0E0,0E0,0E0,0E0,0E0,0E0,0E0,0E0,0E0,0E0,0E0,0E0,0E0,0E0,0E0,0E0,0E0,0E0,0E0,0E0,0E0,0E0,0E0,0E0,0E0,0E0,0E0,0E0,0E0,0E0,0E0],"parents":[2147483647,0,0,1,1,2,2,3,3,4,4,5,5,6,6,7,7,8,8,9,9,10,10,11,11,12,12,13,13,14,14,15,15,16,16,17,17,18,18,19,19,20,20,21,21,22,22,23,23,24,24,25,25,26,26,27,27,28,28,29,29,30,30,31,31,32,32,33,33,34,34,35,35,36,36,37,37,38,38,39,39,40,40,41,41,42,42,43,43,44,44,45,45,46,46,47,47,49,49,50,50,51,51,52,52,53,53,54,54,55,55,56,56,57,57,58,58,59,59,60,60,61,61,62,62],"right_children":[2,4,6,8,10,12,14,16,18,20,22,24,26,28,30,32,34,36,38,40,42,44,46,48,50,52,54,56,58,60,62,64,66,68,70,72,74,76,78,80,82,84,86,88,90,92,94,96,-1,98,100,102,104,106,108,110,112,114,116,118,120,122,124,-1,-1,-1,-1,-1,-1,-1,-1,-1,-1,-1,-1,-1,-1,-1,-1,-1,-1,-1,-1,-1,-1,-1,-1,-1,-1,-1,-1,-1,-1,-1,-1,-1,-1,-1,-1,-1,-1,-1,-1,-1,-1,-1,-1,-1,-1,-1,-1,-1,-1,-1,-1,-1,-1,-1,-1,-1,-1,-1,-1,-1,-1],"split_conditions":[9E1,1.7E1,1.84109E5,1.03681E5,3.8E1,9.6E1,9.6E1,3E1,3E0,2.7E1,4.1E1,2E0,2E0,9.5E1,9.8E1,1.3152791E2,5E0,2E0,2.1E1,9.3188E4,3.2E1,3.3E1,7.2E1,9.5E1,9.5E1,9.8E1,2.6E1,9.3E1,2.1E1,5E0,9.9E1,3E0,6E0,4E0,1.3E1,1.2E1,1.84109E5,1.26512E5,7E0,1.7E1,2.2E1,2.9E1,3.5E1,3.9E1,3.7E1,9.3188E4,7.4E1,9.3E1,2.194686E4,2.6E1,6E0,2.141647E2,9.9E1,9.8E1,9.8E1,9.2E1,5E0,2.117644E2,8.256E0,9.7E1,3.2E1,2.1E1,1.1E1,4.1364033E3,3.8046506E2,-1.4157046E3,-6.002168E2,-1.9514688E3,-1.6326494E1,-3.1944592E3,-2.2944624E3,1.2200356E3,6.2519263E3,5.931653E3,1.0713275E4,1.78551E1,3.6912314E3,-3.5995715E2,1.0819976E3,-2.6113088E3,-3.295014E3,-1.8605605E3,-8.8859406E1,-3.692672E3,-2.8584873E3,-1.2121786E3,-3.3222517E3,1.1854134E4,7.352854E3,1.15973076E2,4.6504E3,-3.2138596E3,-2.1194075E3,7.676911E3,-7.253875E2,1.7344012E4,1.0674738E4,-7.840215E2,3.4791626E3,-5.885087E2,6.943757E3,2.8227163E3,4.15467E3,-1.0280499E3,-3.1808147E3,-2.4111392E3,-3.2138552E3,-6.4608044E2,-2.3128792E3,1.2205123E4,2.4744512E4,1.1200315E4,7.352415E3,2.6344783E4,1.6980857E4,1.9045406E4,1.500406E4,4.165522E3,5.2400215E3,1.4291631E3,-4.269219E2,-2.9446213E2,-1.2387312E3,-3.3108606E3,-2.8405925E3],"split_indices":[1,1,7,7,1,1,1,0,1,1,1,0,0,1,1,4,1,1,0,7,1,0,1,1,1,1,0,1,0,0,1,1,0,1,1,8,7,7,1,0,1,1,1,1,0,7,1,1,0,0,0,4,1,1,1,1,0,4,5,1,0,0,8,0,0,0,0,0,0,0,0,0,0,0,0,0,0,0,0,0,0,0,0,0,0,0,0,0,0,0,0,0,0,0,0,0,0,0,0,0,0,0,0,0,0,0,0,0,0,0,0,0,0,0,0,0,0,0,0,0,0,0,0,0,0],"split_type":[0,0,0,0,0,0,0,0,0,0,0,0,0,0,0,0,0,0,0,0,0,0,0,0,0,0,0,0,0,0,0,0,0,0,0,0,0,0,0,0,0,0,0,0,0,0,0,0,0,0,0,0,0,0,0,0,0,0,0,0,0,0,0,0,0,0,0,0,0,0,0,0,0,0,0,0,0,0,0,0,0,0,0,0,0,0,0,0,0,0,0,0,0,0,0,0,0,0,0,0,0,0,0,0,0,0,0,0,0,0,0,0,0,0,0,0,0,0,0,0,0,0,0,0,0],"sum_hessian":[3.15159E5,2.73964E5,4.1195E4,7.1882E4,2.02082E5,2.6468E4,1.4727E4,2.2043E4,4.9839E4,8.6181E4,1.15901E5,1.8236E4,8.232E3,9.615E3,5.112E3,9.684E3,1.2359E4,6.653E3,4.3186E4,4.2433E4,4.3748E4,9.652E3,1.06249E5,6.37E2,1.7599E4,3.32E2,7.9E3,8.027E3,1.588E3,3.028E3,2.084E3,1.602E3,8.082E3,3.427E3,8.932E3,3.271E3,3.382E3,2.099E4,2.2196E4,8.62E3,3.3813E4,2.1352E4,2.2396E4,6.826E3,2.826E3,6.4071E4,4.2178E4,5.31E2,1.06E2,1.4508E4,3.091E3,2.02E2,1.3E2,3.612E3,4.288E3,4.756E3,3.271E3,8.48E2,7.4E2,4.23E2,2.605E3,1.59E3,4.94E2,2.1E2,1.392E3,3.251E3,4.831E3,2.576E3,8.51E2,6.406E3,2.526E3,3.051E3,2.2E2,1.763E3,1.619E3,5.573E3,1.5417E4,6.818E3,1.5378E4,4.032E3,4.588E3,1.6122E4,1.7691E4,8.78E3,1.2572E4,1.2507E4,9.889E3,3.409E3,3.417E3,8.88E2,1.938E3,1.1546E4,5.2525E4,4.506E3,3.7672E4,3.19E2,2.12E2,7.099E3,7.409E3,2.11E2,2.88E3,7E1,1.32E2,1.05E2,2.5E1,2.397E3,1.215E3,2.713E3,1.575E3,3.168E3,1.588E3,4.28E2,2.843E3,5.37E2,3.11E2,4.16E2,3.24E2,2.13E2,2.1E2,1.96E3,6.45E2,8.37E2,7.53E2,4.22E2,7.2E1],"tree_param":{"num_deleted":"0","num_feature":"9","num_nodes":"125","size_leaf_vector":"1"}},{"base_weights":[1.3934536E0,-1.4765681E3,9.830254E3,-3.2894604E3,1.7151481E3,1.1284858E3,1.9455525E4,-1.7021577E3,-5.2237583E3,1.0026595E4,1.0008795E2,-1.6447839E3,7.412859E3,2.943034E4,5.340267E2,1.2639287E3,-4.395982E3,-2.7882847E3,-5.6780283E3,1.28199795E4,4.4431504E3,-1.3365055E3,6.8372666E3,3.289909E2,-6.3255366E3,1.2129291E4,-2.4706577E3,4.485739E4,2.67058E4,3.3041978E3,-3.4896548E3,1.1573608E4,-5.5706805E2,-5.4146075E2,-4.9867427E3,-3.8836865E3,4.6330425E3,-6.850375E3,-4.863198E3,1.1600292E4,2.8970725E4,7.4532197E3,1.4879061E3,9.689043E0,-5.260669E3,3.2096814E4,3.7293079E3,-1.900217E3,1.0401019E4,-6.668915E3,-2.0982825E3,1.5643647E4,3.2981592E3,-1.0092242E3,-6.933315E3,4.133922E4,6.2395855E4,9.506775E3,3.0352092E4,1.0276624E4,2.0099628E3,-2.2282036E3,-7.7742227E3,9.712907E3,2.2831125E3,1.3426333E3,-7.0748926E2,-3.237485E2,1.0048201E4,-8.3895807E2,-1.7262086E3,-2.2711333E2,-1.5619476E3,3.9174765E2,3.319345E3,-1.9545225E3,-3.1680994E3,-1.0428218E3,-1.6196327E3,2.5384683E3,4.910369E3,6.391567E3,1.202624E4,4.167901E3,1.7584801E3,-4.0791897E3,1.5853666E3,-6.2936316E2,2.5046404E3,-1.8680085E3,-2.8595734E2,1.3609069E4,5.0888433E3,2.4631968E3,-1.1808511E3,4.9280588E2,-2.7044817E3,2.3450993E2,3.9714373E3,-7.7017975E2,-2.0885266E3,1.0918978E3,-1.427565E3,3.260238E3,6.848787E3,3.8135443E2,4.0802207E3,-6.6278674E2,1.1000443E3,-2.7363142E3,-1.9259358E3,1.54916E4,7.7404375E3,2.1942672E4,1.7011352E4,2.0778552E3,6.6257085E3,1.70572E4,7.8001353E3,3.5887312E3,2.6968528E3,-2.0591473E1,1.3072345E3,-1.0717178E3,-4.4700473E2,-2.37001E3,-2.0904707E3],"categories":[],"categories_nodes":[],"categories_segments":[],"categories_sizes":[],"default_left":[0,0,0,0,0,0,0,0,0,0,0,0,0,0,0,0,0,0,0,0,0,0,0,0,0,0,0,0,0,0,0,0,0,0,0,0,0,0,0,0,0,0,0,0,0,0,0,0,0,0,0,0,0,0,0,0,0,0,0,0,0,0,0,0,0,0,0,0,0,0,0,0,0,0,0,0,0,0,0,0,0,0,0,0,0,0,0,0,0,0,0,0,0,0,0,0,0,0,0,0,0,0,0,0,0,0,0,0,0,0,0,0,0,0,0,0,0,0,0,0,0,0,0,0,0,0,0],"id":2,"left_children":[1,3,5,7,9,11,13,15,17,19,21,23,25,27,29,31,33,35,37,39,41,43,45,47,49,51,53,55,57,59,61,63,65,67,69,71,73,75,77,79,81,83,85,87,89,91,93,95,97,99,101,103,105,107,109,111,113,115,117,119,121,123,125,-1,-1,-1,-1,-1,-1,-1,-1,-1,-1,-1,-1,-1,-1,-1,-1,-1,-1,-1,-1,-1,-1,-1,-1,-1,-1,-1,-1,-1,-1,-1,-1,-1,-1,-1,-1,-1,-1,-1,-1,-1,-1,-1,-1,-1,-1,-1,-1,-1,-1,-1,-1,-1,-1,-1,-1,-1,-1,-1,-1,-1,-1,-1,-1],"loss_changes":[4.578242E12,1.5852322E12,3.4504266E12,5.364461E11,1.332186E12,3.771075E11,3.6917095E12,7.6682494E11,8.7113466E10,2.5178302E11,8.042707E11,1.3870345E11,3.0885393E11,5.371425E11,7.52824E10,8.575604E11,1.145218E11,1.0067543E11,6.336925E10,2.1166306E11,4.7900033E10,3.6182714E11,1.146455E12,2.3714216E11,6.449758E9,1.3914368E11,1.395634E10,1.15952845E11,6.82527E11,3.607517E10,1.4867427E10,5.650869E11,3.5192072E11,1.2237767E11,7.327141E10,4.4622856E10,3.407383E10,3.378276E10,2.907367E10,1.496234E11,6.3483544E10,2.726473E10,1.5579777E11,8.963367E11,7.279313E10,3.2047707E11,4.4681016E11,2.1800295E11,5.2224655E10,4.9283727E9,5.146177E9,1.09850395E11,2.66713E10,9.065142E9,5.346345E8,2.5519614E11,1.536308E10,6.1717774E10,1.0346331E12,1.2507791E9,1.6468562E10,2.1072056E9,8.425472E6,0E0,0E0,0E0,0E0,0E0,0E0,0E0,0E0,0E0,0E0,0E0,0E0,0E0,0E0,0E0,0E0,0E0,0E0,0E0,0E0,0E0,0E0,0E0,0E0,0E0,0E0,0E0,0E0,0E0,0E0,0E0,0E0,0E0,0E0,0E0,0E0,0E0,0E0,0E0,0E0,0E0,0E0,0E0,0E0,0E0,0E0,0E0,0E0,0E0,0E0,0E0,0E0,0E0,0E0,0E0,0E0,0E0,0E0,0E0,0E0,0E0,0E0,0E0,0E0],"parents":[2147483647,0,0,1,1,2,2,3,3,4,4,5,5,6,6,7,7,8,8,9,9,10,10,11,11,12,12,13,13,14,14,15,15,16,16,17,17,18,18,19,19,20,20,21,21,22,22,23,23,24,24,25,25,26,26,27,27,28,28,29,29,30,30,31,31,32,32,33,33,34,34,35,35,36,36,37,37,38,38,39,39,40,40,41,41,42,42,43,43,44,44,45,45,46,46,47,47,48,48,49,49,50,50,51,51,52,52,53,53,54,54,55,55,56,56,57,57,58,58,59,59,60,60,61,61,62,62],"right_children":[2,4,6,8,10,12,14,16,18,20,22,24,26,28,30,32,34,36,38,40,42,44,46,48,50,52,54,56,58,60,62,64,66,68,70,72,74,76,78,80,82,84,86,88,90,92,94,96,98,100,102,104,106,108,110,112,114,116,118,120,122,124,126,-1,-1,-1,-1,-1,-1,-1,-1,-1,-1,-1,-1,-1,-1,-1,-1,-1,-1,-1,-1,-1,-1,-1,-1,-1,-1,-1,-1,-1,-1,-1,-1,-1,-1,-1,-1,-1,-1,-1,-1,-1,-1,-1,-1,-1,-1,-1,-1,-1,-1,-1,-1,-1,-1,-1,-1,-1,-1,-1,-1,-1,-1,-1,-1],"split_conditions":[9E1,1.84109E5,1.51315E5,2.4E1,1.1E1,3.6E1,9.6E1,1.8203477E2,9E0,2.8E1,7.2E1,9.6E1,9.6E1,5E0,9.8E1,1.1E1,2E0,8E0,5.7197E4,1.2E1,6E0,4.7E1,7.4E1,9.5E1,2E0,4.4E1,4.4E1,9.5E1,1.2E1,5E0,9.9E1,1.1E1,1.8E1,8.7E1,1.7E1,3E0,1.12238E5,8.3E1,1.12238E5,7E0,7E0,1.96321E5,7E0,3.8E1,6.5E1,2.1E1,8.3E1,9.3E1,1E1,5.401E0,9.7E1,3.9E1,9.5E1,4.3E1,9.7E1,9.3E1,6.901E0,9.5E1,1.5E1,7.17E0,6.274E1,2.00898E5,1.1E1,9.712907E3,2.2831125E3,1.3426333E3,-7.0748926E2,-3.237485E2,1.0048201E4,-8.3895807E2,-1.7262086E3,-2.2711333E2,-1.5619476E3,3.9174765E2,3.319345E3,-1.9545225E3,-3.1680994E3,-1.0428218E3,-1.6196327E3,2.5384683E3,4.910369E3,6.391567E3,1.202624E4,4.167901E3,1.7584801E3,-4.0791897E3,1.5853666E3,-6.2936316E2,2.5046404E3,-1.8680085E3,-2.8595734E2,1.3609069E4,5.0888433E3,2.4631968E3,-1.1808511E3,4.9280588E2,-2.7044817E3,2.3450993E2,3.9714373E3,-7.7017975E2,-2.0885266E3,1.0918978E3,-1.427565E3,3.260238E3,6.848787E3,3.8135443E2,4.0802207E3,-6.6278674E2,1.1000443E3,-2.7363142E3,-1.9259358E3,1.54916E4,7.7404375E3,2.1942672E4,1.7011352E4,2.0778552E3,6.6257085E3,1.70572E4,7.8001353E3,3.5887312E3,2.6968528E3,-2.0591473E1,1.3072345E3,-1.0717178E3,-4.4700473E2,-2.37001E3,-2.0904707E3],"split_indices":[1,7,7,0,1,0,1,4,1,0,1,1,1,0,1,0,0,1,7,8,1,1,1,1,6,0,0,1,0,0,1,1,1,1,1,1,7,1,7,1,1,7,1,1,1,0,1,1,0,5,1,0,1,0,1,1,5,1,0,5,2,7,8,0,0,0,0,0,0,0,0,0,0,0,0,0,0,0,0,0,0,0,0,0,0,0,0,0,0,0,0,0,0,0,0,0,0,0,0,0,0,0,0,0,0,0,0,0,0,0,0,0,0,0,0,0,0,0,0,0,0,0,0,0,0,0,0],"split_type":[0,0,0,0,0,0,0,0,0,0,0,0,0,0,0,0,0,0,0,0,0,0,0,0,0,0,0,0,0,0,0,0,0,0,0,0,0,0,0,0,0,0,0,0,0,0,0,0,0,0,0,0,0,0,0,0,0,0,0,0,0,0,0,0,0,0,0,0,0,0,0,0,0,0,0,0,0,0,0,0,0,0,0,0,0,0,0,0,0,0,0,0,0,0,0,0,0,0,0,0,0,0,0,0,0,0,0,0,0,0,0,0,0,0,0,0,0,0,0,0,0,0,0,0,0,0,0],"sum_hessian":[3.15159E5,2.73964E5,4.1195E4,1.74722E5,9.9242E4,2.1636E4,1.9559E4,9.597E4,7.8752E4,1.6146E4,8.3096E4,1.5012E4,6.624E3,1.2807E4,6.752E3,4.5677E4,5.0293E4,1.2381E4,6.6371E4,1.0761E4,5.385E3,6.8492E4,1.4604E4,1.056E4,4.452E3,4.484E3,2.14E3,1.92E3,1.0887E4,3.999E3,2.753E3,6.856E3,3.8821E4,6.684E3,4.3609E4,1.0789E4,1.592E3,2.7212E4,3.9159E4,1.0007E4,7.54E2,2.667E3,2.718E3,5.0998E4,1.7494E4,1.599E3,1.3005E4,8.647E3,1.913E3,4.117E3,3.35E2,3.207E3,1.277E3,1.613E3,5.27E2,1.602E3,3.18E2,1.905E3,8.982E3,6.25E2,3.374E3,2.128E3,6.25E2,1.096E3,5.76E3,1.0232E4,2.8589E4,6.581E3,1.03E2,1.1315E4,3.2294E4,3.208E3,7.581E3,1.05E3,5.42E2,2.4959E4,2.253E3,1.091E4,2.8249E4,6.036E3,3.971E3,4.48E2,3.06E2,5.27E2,2.14E3,5.46E2,2.172E3,4.071E4,1.0288E4,1.4289E4,3.205E3,8.51E2,7.48E2,8.207E3,4.798E3,5.773E3,2.874E3,4.36E2,1.477E3,2.75E2,3.842E3,1.06E2,2.29E2,1.928E3,1.279E3,1.068E3,2.09E2,1.284E3,3.29E2,9.7E1,4.3E2,9.62E2,6.4E2,1.06E2,2.12E2,1.582E3,3.23E2,1.265E3,7.717E3,2.67E2,3.58E2,1.79E3,1.584E3,7.53E2,1.375E3,5.33E2,9.2E1],"tree_param":{"num_deleted":"0","num_feature":"9","num_nodes":"127","size_leaf_vector":"1"}},{"base_weights":[1.5129417E0,-1.0333679E3,6.883762E3,-2.2052927E3,1.5146108E3,1.9210592E3,1.580221E4,8.418973E2,-2.794301E3,6.0176865E3,-5.6056873E1,4.099213E3,-2.9040244E3,2.3890146E4,5.881673E2,-3.6253086E3,2.7802456E3,-4.6150176E3,-2.2435452E3,7.681141E3,5.0787775E2,-1.4198319E3,5.481331E3,-1.6719205E3,7.2061763E3,-6.69439E2,-3.7238425E3,2.128299E4,3.704707E4,2.4846663E3,-2.1672686E3,-6.2682314E3,-3.042964E3,7.3198315E2,6.8564443E3,-3.7960562E3,-5.5416494E3,-1.6216756E2,-2.7241387E3,1.59644E4,6.48538E3,6.861584E3,-3.883056E2,1.08280525E2,-3.5723694E3,2.400217E4,3.188368E3,2.6854236E3,-5.9315566E3,2.0461908E4,2.2901926E3,-3.2411462E3,1.1691528E3,-4.3887285E3,-1.1107257E3,2.8955385E4,1.012197E4,3.2597627E4,4.3054637E4,6.6681445E2,5.2357827E3,-1.2015052E3,-5.26699E3,-2.6768628E3,-1.7651699E3,-1.411491E2,-1.1428326E3,1.0354812E3,-3.8536936E3,1.6988602E3,6.9733726E3,-1.6144993E3,2.6386567E3,-2.0747402E3,-1.02282513E3,1.6539657E3,-6.432648E2,-1.306412E2,-9.267241E2,1.8875414E3,7.646732E3,-1.7992723E3,2.2383928E3,-2.594926E2,4.3628096E3,-2.1695789E3,3.821057E1,-8.507442E2,8.635736E3,-2.8104177E3,-5.8794855E2,5.5755493E3,1.8406182E4,1.8919678E3,-6.44657E2,-2.8807187E2,3.8263525E3,-2.2557048E3,9.834904E1,-2.664669E3,6.7752046E3,-9.729704E2,3.516885E3,-1.5866702E3,1.1052513E3,-3.908146E2,1.1936288E3,-1.5088538E3,-8.01021E2,4.6362607E2,-9.9160315E2,5.7458013E3,1.4546122E4,1.8412966E3,4.2019014E3,1.0823407E4,7.5850103E3,1.4251212E4,8.617971E3,-1.0231195E3,1.2745114E3,2.0414689E3,-5.1133826E2,-7.228753E1,-6.802407E2,-1.3846274E3,-1.6144415E3],"categories":[],"categories_nodes":[],"categories_segments":[],"categories_sizes":[],"default_left":[0,0,0,0,0,0,0,0,0,0,0,0,0,0,0,0,0,0,0,0,0,0,0,0,0,0,0,0,0,0,0,0,0,0,0,0,0,0,0,0,0,0,0,0,0,0,0,0,0,0,0,0,0,0,0,0,0,0,0,0,0,0,0,0,0,0,0,0,0,0,0,0,0,0,0,0,0,0,0,0,0,0,0,0,0,0,0,0,0,0,0,0,0,0,0,0,0,0,0,0,0,0,0,0,0,0,0,0,0,0,0,0,0,0,0,0,0,0,0,0,0,0,0,0,0,0,0],"id":3,"left_children":[1,3,5,7,9,11,13,15,17,19,21,23,25,27,29,31,33,35,37,39,41,43,45,47,49,51,53,55,57,59,61,63,65,67,69,71,73,75,77,79,81,83,85,87,89,91,93,95,97,99,101,103,105,107,109,111,113,115,117,119,121,123,125,-1,-1,-1,-1,-1,-1,-1,-1,-1,-1,-1,-1,-1,-1,-1,-1,-1,-1,-1,-1,-1,-1,-1,-1,-1,-1,-1,-1,-1,-1,-1,-1,-1,-1,-1,-1,-1,-1,-1,-1,-1,-1,-1,-1,-1,-1,-1,-1,-1,-1,-1,-1,-1,-1,-1,-1,-1,-1,-1,-1,-1,-1,-1,-1],"loss_changes":[2.2446735E12,8.180737E11,1.8232885E12,3.3680943E11,6.104638E11,2.781951E11,1.8122694E12,2.6322638E11,1.5768342E11,2.0456604E11,4.8325942E11,3.2701422E11,1.5079981E10,3.2906097E11,2.6724295E10,1.4139023E10,1.7699643E11,2.769381E10,1.2077341E11,1.697043E11,2.9480948E10,1.6889707E11,5.369689E11,1.18488875E11,7.724838E11,1.0458106E10,1.0459628E10,6.871583E11,4.107115E10,1.5144905E10,6.2353224E9,1.6411402E9,1.4865121E10,5.2110708E11,1.3855234E11,3.8717456E11,5.017328E10,2.5479918E11,8.1925505E10,1.9902169E11,1.8257484E11,3.7995667E10,1.6015886E10,2.5354932E12,1.9921509E11,2.8071205E11,1.8730806E11,1.1586424E11,3.2077562E10,1.999046E11,4.5147665E11,1.3094687E10,8.964214E9,5.273854E9,7.134251E9,9.098638E11,5.055329E10,2.2431465E10,4.1539994E10,2.6664538E10,1.3134084E10,1.6284913E9,1.2085248E7,0E0,0E0,0E0,0E0,0E0,0E0,0E0,0E0,0E0,0E0,0E0,0E0,0E0,0E0,0E0,0E0,0E0,0E0,0E0,0E0,0E0,0E0,0E0,0E0,0E0,0E0,0E0,0E0,0E0,0E0,0E0,0E0,0E0,0E0,0E0,0E0,0E0,0E0,0E0,0E0,0E0,0E0,0E0,0E0,0E0,0E0,0E0,0E0,0E0,0E0,0E0,0E0,0E0,0E0,0E0,0E0,0E0,0E0,0E0,0E0,0E0,0E0,0E0,0E0],"parents":[2147483647,0,0,1,1,2,2,3,3,4,4,5,5,6,6,7,7,8,8,9,9,10,10,11,11,12,12,13,13,14,14,15,15,16,16,17,17,18,18,19,19,20,20,21,21,22,22,23,23,24,24,25,25,26,26,27,27,28,28,29,29,30,30,31,31,32,32,33,33,34,34,35,35,36,36,37,37,38,38,39,39,40,40,41,41,42,42,43,43,44,44,45,45,46,46,47,47,48,48,49,49,50,50,51,51,52,52,53,53,54,54,55,55,56,56,57,57,58,58,59,59,60,60,61,61,62,62],"right_children":[2,4,6,8,10,12,14,16,18,20,22,24,26,28,30,32,34,36,38,40,42,44,46,48,50,52,54,56,58,60,62,64,66,68,70,72,74,76,78,80,82,84,86,88,90,92,94,96,98,100,102,104,106,108,110,112,114,116,118,120,122,124,126,-1,-1,-1,-1,-1,-1,-1,-1,-1,-1,-1,-1,-1,-1,-1,-1,-1,-1,-1,-1,-1,-1,-1,-1,-1,-1,-1,-1,-1,-1,-1,-1,-1,-1,-1,-1,-1,-1,-1,-1,-1,-1,-1,-1,-1,-1,-1,-1,-1,-1,-1,-1,-1,-1,-1,-1,-1,-1,-1,-1,-1,-1,-1,-1],"split_conditions":[9E1,2.00898E5,1.84109E5,1E1,1.8E1,9.6E1,9.6E1,5.7197E4,5.7197E4,2.8E1,7.2E1,9.2E1,9.7E1,9.5E1,9.8E1,1E0,7E0,4.1E1,1.3152791E2,3E0,3E0,4.1E1,7.4E1,9.1E1,9.3E1,2.3E1,1.51315E5,9.3E1,6.731E1,2.0344759E2,9.9E1,2E0,3E0,6E0,1.2E1,3.7E1,7.9E1,1.1E1,1.8E1,2E0,4E0,2E0,4E0,3.8E1,4.6E1,1.1E1,8.3E1,3.6E1,2E0,3.969E4,9.5E1,1.26512E5,1.3476778E2,2E0,9.8E1,9.2E1,9.4E1,2.8E1,2.06302E5,9.7E1,2.03819E5,2.1E1,4.023E1,-2.6768628E3,-1.7651699E3,-1.411491E2,-1.1428326E3,1.0354812E3,-3.8536936E3,1.6988602E3,6.9733726E3,-1.6144993E3,2.6386567E3,-2.0747402E3,-1.02282513E3,1.6539657E3,-6.432648E2,-1.306412E2,-9.267241E2,1.8875414E3,7.646732E3,-1.7992723E3,2.2383928E3,-2.594926E2,4.3628096E3,-2.1695789E3,3.821057E1,-8.507442E2,8.635736E3,-2.8104177E3,-5.8794855E2,5.5755493E3,1.8406182E4,1.8919678E3,-6.44657E2,-2.8807187E2,3.8263525E3,-2.2557048E3,9.834904E1,-2.664669E3,6.7752046E3,-9.729704E2,3.516885E3,-1.5866702E3,1.1052513E3,-3.908146E2,1.1936288E3,-1.5088538E3,-8.01021E2,4.6362607E2,-9.9160315E2,5.7458013E3,1.4546122E4,1.8412966E3,4.2019014E3,1.0823407E4,7.5850103E3,1.4251212E4,8.617971E3,-1.0231195E3,1.2745114E3,2.0414689E3,-5.1133826E2,-7.228753E1,-6.802407E2,-1.3846274E3,-1.6144415E3],"split_indices":[1,7,7,1,1,1,1,7,7,0,1,1,1,1,1,6,1,1,4,1,1,1,1,1,1,0,7,1,2,4,1,1,1,1,8,1,1,0,1,1,1,1,1,1,1,8,1,0,6,7,1,7,4,6,1,1,1,0,7,1,7,0,2,0,0,0,0,0,0,0,0,0,0,0,0,0,0,0,0,0,0,0,0,0,0,0,0,0,0,0,0,0,0,0,0,0,0,0,0,0,0,0,0,0,0,0,0,0,0,0,0,0,0,0,0,0,0,0,0,0,0,0,0,0,0,0,0],"split_type":[0,0,0,0,0,0,0,0,0,0,0,0,0,0,0,0,0,0,0,0,0,0,0,0,0,0,0,0,0,0,0,0,0,0,0,0,0,0,0,0,0,0,0,0,0,0,0,0,0,0,0,0,0,0,0,0,0,0,0,0,0,0,0,0,0,0,0,0,0,0,0,0,0,0,0,0,0,0,0,0,0,0,0,0,0,0,0,0,0,0,0,0,0,0,0,0,0,0,0,0,0,0,0,0,0,0,0,0,0,0,0,0,0,0,0,0,0,0,0,0,0,0,0,0,0,0,0],"sum_hessian":[3.15159E5,2.73964E5,4.1195E4,1.87654E5,8.631E4,2.6468E4,1.4727E4,3.0397E4,1.57257E5,2.2319E4,6.3991E4,1.8236E4,8.232E3,9.615E3,5.112E3,9.198E3,2.1199E4,3.652E4,1.20737E5,1.7143E4,5.176E3,5.1346E4,1.2645E4,6.382E3,1.1854E4,2.21E3,6.022E3,8.027E3,1.588E3,3.028E3,2.084E3,1.659E3,7.539E3,1.411E4,7.089E3,1.9389E4,1.7131E4,2.2649E4,9.8088E4,2.161E3,1.4982E4,6.39E2,4.537E3,3.0029E4,2.1317E4,1.392E3,1.1253E4,3.155E3,3.227E3,3.206E3,8.648E3,9.21E2,1.289E3,4.8E3,1.222E3,4.756E3,3.271E3,9.16E2,6.72E2,1.824E3,1.204E3,1.59E3,4.94E2,2.07E2,1.452E3,1.731E3,5.808E3,1.1756E4,2.354E3,6.609E3,4.8E2,1.7221E4,2.168E3,1.0416E4,6.715E3,5.862E3,1.6787E4,1.349E4,8.4598E4,1.073E3,1.088E3,1.086E3,1.3896E4,3.19E2,3.2E2,3.17E2,4.22E3,2.7234E4,2.795E3,4.639E3,1.6678E4,1.217E3,1.75E2,7.103E3,4.15E3,2.317E3,8.38E2,2.574E3,6.53E2,2.16E2,2.99E3,5.451E3,3.197E3,7.11E2,2.1E2,6.86E2,6.03E2,3.495E3,1.305E3,5.53E2,6.69E2,3.168E3,1.588E3,1.616E3,1.655E3,6.18E2,2.98E2,5.11E2,1.61E2,8.53E2,9.71E2,9.82E2,2.22E2,8.37E2,7.53E2,8E1,4.14E2],"tree_param":{"num_deleted":"0","num_feature":"9","num_nodes":"127","size_leaf_vector":"1"}},{"base_weights":[1.4104252E0,-7.8760425E2,4.6252524E3,2.317302E3,-1.3019752E3,9.526469E1,9.704072E3,2.7991647E2,6.298614E3,-1.0487347E3,-7.568341E3,-3.9934602E3,1.8310544E3,1.397443E4,2.766087E2,-5.243089E2,5.8211626E3,3.5707053E3,1.4424255E4,-1.6417454E3,2.9830242E3,-6.7741206E3,-8.376592E3,-5.468128E3,5.2201973E3,3.2721128E3,-2.060858E3,1.6689986E4,5.862509E3,1.6465043E3,-1.713173E3,-1.185128E3,8.233268E3,1.1373889E3,1.0371813E4,7.3133403E3,-1.5533348E4,1.1806785E4,5.0479773E4,-9.068759E2,-4.076234E3,1.3852555E4,9.381994E2,-5.4712183E3,-8.193599E3,-6.688247E3,-9.508321E3,-2.2774771E2,-6.1852007E3,7.6194194E3,-7.004508E2,-3.0841776E2,6.043456E3,-1.0522842E3,-3.7007712E3,2.4459516E4,1.4752906E4,3.9114548E3,1.7802941E4,6.2184883E3,7.97998E2,-1.0408654E3,-3.9969265E3,8.184948E2,-8.401689E2,1.4114113E3,8.867908E3,-2.2256798E2,1.1935112E3,7.775396E3,1.923422E3,3.9303586E3,1.7552843E3,-5.839924E3,-2.401657E3,1.9740039E3,5.0984756E3,2.4913562E4,4.781784E3,-6.106472E2,1.133812E3,-1.4322703E3,-3.7647534E2,-3.3218384E3,5.6303228E3,-3.8280762E2,1.0754631E3,-1.8970807E3,-1.4621965E3,-2.5052446E3,-1.7883634E3,-1.688744E3,-2.2505886E3,-3.9555432E3,-2.6997664E3,-2.4257024E3,2.6803665E2,-3.0684297E3,-1.4106514E3,9.7668976E2,1.0092564E4,6.0161096E2,-7.3473145E2,3.609141E3,-2.8242834E2,5.6369336E3,4.7774442E2,-6.8729694E2,1.3859175E2,-2.188768E1,-1.2558457E3,4.6042646E3,9.341882E3,1.0170147E3,5.552368E3,-3.7164944E2,2.1938477E3,4.317207E3,9.543801E3,2.9787883E3,1.6482406E3,-4.6892108E2,5.661658E2,-1.6402339E2,-6.8453644E2,-1.5319655E3,-1.1078856E3],"categories":[],"categories_nodes":[],"categories_segments":[],"categories_sizes":[],"default_left":[0,0,0,0,0,0,0,0,0,0,0,0,0,0,0,0,0,0,0,0,0,0,0,0,0,0,0,0,0,0,0,0,0,0,0,0,0,0,0,0,0,0,0,0,0,0,0,0,0,0,0,0,0,0,0,0,0,0,0,0,0,0,0,0,0,0,0,0,0,0,0,0,0,0,0,0,0,0,0,0,0,0,0,0,0,0,0,0,0,0,0,0,0,0,0,0,0,0,0,0,0,0,0,0,0,0,0,0,0,0,0,0,0,0,0,0,0,0,0,0,0,0,0,0,0,0,0],"id":4,"left_children":[1,3,5,7,9,11,13,15,17,19,21,23,25,27,29,31,33,35,37,39,41,43,45,47,49,51,53,55,57,59,61,63,65,67,69,71,73,75,77,79,81,83,85,87,89,91,93,95,97,99,101,103,105,107,109,111,113,115,117,119,121,123,125,-1,-1,-1,-1,-1,-1,-1,-1,-1,-1,-1,-1,-1,-1,-1,-1,-1,-1,-1,-1,-1,-1,-1,-1,-1,-1,-1,-1,-1,-1,-1,-1,-1,-1,-1,-1,-1,-1,-1,-1,-1,-1,-1,-1,-1,-1,-1,-1,-1,-1,-1,-1,-1,-1,-1,-1,-1,-1,-1,-1,-1,-1,-1,-1],"loss_changes":[1.1497953E12,4.2996885E11,1.0569402E12,3.103592E11,3.6650195E11,1.723478E11,8.719177E11,1.1279926E11,2.870426E11,5.3075542E11,5.7019924E9,9.835825E10,9.561439E10,3.282575E11,1.84101E10,1.2792947E11,6.8364214E10,6.935157E11,3.065921E11,3.4622036E11,6.3265826E11,8.333148E9,8.4239647E9,2.3443112E10,1.4196085E10,1.2345238E11,7.615963E9,1.6770453E11,8.705901E10,1.5512466E10,4.2242898E9,1.2994825E11,1.1657623E11,8.44926E9,1.0000687E11,6.8567335E10,4.6890353E10,8.221596E10,2.4613801E11,7.862396E11,8.835944E10,5.523729E11,1.4041245E11,1.173119E9,7.104266E8,1.4969569E9,4.8549233E9,6.6325934E9,3.2856523E10,8.062912E10,1.3723274E9,4.241529E10,3.9784255E11,5.3543583E9,3.088261E9,1.3507677E11,3.8142647E11,5.634705E10,2.4639668E10,1.6280924E9,8.682524E9,1.3041825E9,1.922898E8,0E0,0E0,0E0,0E0,0E0,0E0,0E0,0E0,0E0,0E0,0E0,0E0,0E0,0E0,0E0,0E0,0E0,0E0,0E0,0E0,0E0,0E0,0E0,0E0,0E0,0E0,0E0,0E0,0E0,0E0,0E0,0E0,0E0,0E0,0E0,0E0,0E0,0E0,0E0,0E0,0E0,0E0,0E0,0E0,0E0,0E0,0E0,0E0,0E0,0E0,0E0,0E0,0E0,0E0,0E0,0E0,0E0,0E0,0E0,0E0,0E0,0E0,0E0,0E0],"parents":[2147483647,0,0,1,1,2,2,3,3,4,4,5,5,6,6,7,7,8,8,9,9,10,10,11,11,12,12,13,13,14,14,15,15,16,16,17,17,18,18,19,19,20,20,21,21,22,22,23,23,24,24,25,25,26,26,27,27,28,28,29,29,30,30,31,31,32,32,33,33,34,34,35,35,36,36,37,37,38,38,39,39,40,40,41,41,42,42,43,43,44,44,45,45,46,46,47,47,48,48,49,49,50,50,51,51,52,52,53,53,54,54,55,55,56,56,57,57,58,58,59,59,60,60,61,61,62,62],"right_children":[2,4,6,8,10,12,14,16,18,20,22,24,26,28,30,32,34,36,38,40,42,44,46,48,50,52,54,56,58,60,62,64,66,68,70,72,74,76,78,80,82,84,86,88,90,92,94,96,98,100,102,104,106,108,110,112,114,116,118,120,122,124,126,-1,-1,-1,-1,-1,-1,-1,-1,-1,-1,-1,-1,-1,-1,-1,-1,-1,-1,-1,-1,-1,-1,-1,-1,-1,-1,-1,-1,-1,-1,-1,-1,-1,-1,-1,-1,-1,-1,-1,-1,-1,-1,-1,-1,-1,-1,-1,-1,-1,-1,-1,-1,-1,-1,-1,-1,-1,-1,-1,-1,-1,-1,-1,-1],"split_conditions":[8.7E1,9E0,1.51315E5,1.84109E5,8.3E1,1.7E1,9.6E1,8E0,7E0,7.2E1,1E0,1.26512E5,9.6E1,3.2E1,9.8E1,1.2E1,1.12238E5,6E0,1.2E1,4.7E1,7.4E1,8.5E1,9.3188E4,9E1,9.6E1,9.2E1,9.8E1,5E0,9.5E1,5E0,9.9E1,3E0,7E0,2E0,1.3152791E2,1.3152791E2,2.8E1,8E0,8E0,3.8E1,6.5E1,5.7197E4,1.51315E5,2.00898E5,1.2E1,8.5E1,1.1E1,4E0,9.2E1,9.5E1,9.7E1,5.326E0,9.3E1,2E0,1E0,9.2E1,1.2E1,3.5E1,2.0344759E2,5.668E0,4.931E1,2.1213083E2,1.84109E5,8.184948E2,-8.401689E2,1.4114113E3,8.867908E3,-2.2256798E2,1.1935112E3,7.775396E3,1.923422E3,3.9303586E3,1.7552843E3,-5.839924E3,-2.401657E3,1.9740039E3,5.0984756E3,2.4913562E4,4.781784E3,-6.106472E2,1.133812E3,-1.4322703E3,-3.7647534E2,-3.3218384E3,5.6303228E3,-3.8280762E2,1.0754631E3,-1.8970807E3,-1.4621965E3,-2.5052446E3,-1.7883634E3,-1.688744E3,-2.2505886E3,-3.9555432E3,-2.6997664E3,-2.4257024E3,2.6803665E2,-3.0684297E3,-1.4106514E3,9.7668976E2,1.0092564E4,6.0161096E2,-7.3473145E2,3.609141E3,-2.8242834E2,5.6369336E3,4.7774442E2,-6.8729694E2,1.3859175E2,-2.188768E1,-1.2558457E3,4.6042646E3,9.341882E3,1.0170147E3,5.552368E3,-3.7164944E2,2.1938477E3,4.317207E3,9.543801E3,2.9787883E3,1.6482406E3,-4.6892108E2,5.661658E2,-1.6402339E2,-6.8453644E2,-1.5319655E3,-1.1078856E3],"split_indices":[1,1,7,7,1,0,1,1,1,1,6,7,1,0,1,8,7,1,8,1,1,1,7,1,1,1,1,0,1,0,1,1,1,6,4,4,0,1,1,1,1,7,7,7,8,1,0,0,1,1,1,5,1,6,6,1,0,0,4,5,2,4,7,0,0,0,0,0,0,0,0,0,0,0,0,0,0,0,0,0,0,0,0,0,0,0,0,0,0,0,0,0,0,0,0,0,0,0,0,0,0,0,0,0,0,0,0,0,0,0,0,0,0,0,0,0,0,0,0,0,0,0,0,0,0,0,0],"split_type":[0,0,0,0,0,0,0,0,0,0,0,0,0,0,0,0,0,0,0,0,0,0,0,0,0,0,0,0,0,0,0,0,0,0,0,0,0,0,0,0,0,0,0,0,0,0,0,0,0,0,0,0,0,0,0,0,0,0,0,0,0,0,0,0,0,0,0,0,0,0,0,0,0,0,0,0,0,0,0,0,0,0,0,0,0,0,0,0,0,0,0,0,0,0,0,0,0,0,0,0,0,0,0,0,0,0,0,0,0,0,0,0,0,0,0,0,0,0,0,0,0,0,0,0,0,0,0],"sum_hessian":[3.15159E5,2.6922E5,4.5939E4,3.8261E4,2.30959E5,2.4282E4,2.1657E4,2.531E4,1.2951E4,2.21989E5,8.97E3,7.236E3,1.7046E4,1.4905E4,6.752E3,2.2103E4,3.207E3,9.697E3,3.254E3,1.93525E5,2.8464E4,4.529E3,4.441E3,6.238E3,9.98E2,1.244E4,4.606E3,1.1166E4,3.739E3,3.999E3,2.753E3,2.0553E4,1.55E3,1.581E3,1.626E3,8.109E3,1.588E3,3.035E3,2.19E2,1.48654E5,4.4871E4,4.506E3,2.3958E4,2.364E3,2.165E3,1.785E3,2.656E3,7.51E2,5.487E3,7.1E2,2.88E2,5.428E3,7.012E3,2.853E3,1.753E3,2.226E3,8.94E3,3.215E3,5.24E2,6.25E2,3.374E3,2.128E3,6.25E2,6.005E3,1.4548E4,1.331E3,2.19E2,9.52E2,6.29E2,3.29E2,1.297E3,1.634E3,6.475E3,1.042E3,5.46E2,1.513E3,1.522E3,1.12E2,1.07E2,1.19802E5,2.8852E4,3.5971E4,8.9E3,7.42E2,3.764E3,1.3045E4,1.0913E4,9.7E2,1.394E3,2.02E3,1.45E2,7.79E2,1.006E3,3.2E2,2.336E3,9.3E1,6.58E2,1.471E3,4.016E3,6.09E2,1.01E2,1.13E2,1.75E2,2.64E2,5.164E3,1.814E3,5.198E3,1.569E3,1.284E3,2.07E2,1.546E3,9.43E2,1.283E3,2.221E3,6.719E3,1.279E3,1.936E3,4.23E2,1.01E2,1E2,5.25E2,1.065E3,2.309E3,1.523E3,6.05E2,1.31E2,4.94E2],"tree_param":{"num_deleted":"0","num_feature":"9","num_nodes":"127","size_leaf_vector":"1"}},{"base_weights":[1.2663411E0,-5.184077E2,3.457245E3,6.782244E2,-1.9500144E3,8.946326E2,8.06251E3,2.9961694E3,-1.5787105E2,-9.401046E2,-2.5796924E3,1.0752491E4,5.1961237E2,1.2183282E4,3.1101056E2,7.7615166E3,1.310429E3,-1.682519E3,9.825253E2,-1.3189385E3,8.319796E3,-4.716758E3,-1.9113043E3,1.5368413E4,1.8764825E3,-8.080659E2,3.6274907E3,1.6086248E4,8.360527E3,1.0229975E3,-2.4058276E3,1.430317E4,4.443786E3,1.5189386E2,5.445158E3,1.0875876E3,-2.83121E3,2.0834045E4,-6.916831E2,-2.3003972E3,6.2190546E2,-1.1491592E3,1.124384E4,-3.6266055E3,-5.1754385E3,1.8923022E3,-2.7085073E3,6.194388E3,1.991935E4,3.3875452E3,-4.7941214E2,-2.6163682E3,4.2374487E2,8.401922E3,1.2447191E3,9.443686E3,2.9323627E4,2.4977432E3,2.0427658E4,2.25864E3,-7.426073E2,-4.527964E3,2.0176498E3,8.516055E3,3.685757E3,1.1126119E3,4.7728584E3,1.2757682E3,-1.7584097E2,3.3582532E3,1.0139626E3,-7.2432764E2,5.184864E3,-6.891669E2,-1.5696406E3,7.948665E3,4.563764E3,-2.022964E3,9.8179344E1,-9.482229E2,-4.989088E2,4.9058066E2,-1.1475728E3,2.5633123E3,6.2362876E3,-1.2485728E3,-4.584508E2,-1.7140402E3,-1.0592837E3,-9.372382E2,2.2600652E3,-2.4293418E3,-5.841997E2,4.182543E3,-6.1786835E2,1.1859494E4,3.9651023E3,4.8961993E2,1.2897631E3,3.510982E1,-8.6779E2,-1.299137E3,8.253918E2,5.518407E2,-7.5454565E2,1.0310825E3,5.567981E3,-4.9769922E2,1.7730715E3,5.468316E3,2.3244556E2,1.1313448E4,3.9152761E3,4.2837914E1,1.8033682E3,6.9364634E3,4.4772026E3,3.7523758E2,1.9905686E3,-4.7452282E1,-7.698675E2,-3.8193909E3,-3.6076074E2,1.1657666E3,-3.5398715E2],"categories":[],"categories_nodes":[],"categories_segments":[],"categories_sizes":[],"default_left":[0,0,0,0,0,0,0,0,0,0,0,0,0,0,0,0,0,0,0,0,0,0,0,0,0,0,0,0,0,0,0,0,0,0,0,0,0,0,0,0,0,0,0,0,0,0,0,0,0,0,0,0,0,0,0,0,0,0,0,0,0,0,0,0,0,0,0,0,0,0,0,0,0,0,0,0,0,0,0,0,0,0,0,0,0,0,0,0,0,0,0,0,0,0,0,0,0,0,0,0,0,0,0,0,0,0,0,0,0,0,0,0,0,0,0,0,0,0,0,0,0,0,0,0,0],"id":5,"left_children":[1,3,5,7,9,11,13,15,17,19,21,23,25,27,29,31,33,35,37,39,41,43,45,47,49,51,53,55,57,59,61,63,65,67,69,71,73,75,77,79,81,-1,83,85,87,89,91,93,95,97,99,101,103,105,107,109,111,113,115,117,119,121,123,-1,-1,-1,-1,-1,-1,-1,-1,-1,-1,-1,-1,-1,-1,-1,-1,-1,-1,-1,-1,-1,-1,-1,-1,-1,-1,-1,-1,-1,-1,-1,-1,-1,-1,-1,-1,-1,-1,-1,-1,-1,-1,-1,-1,-1,-1,-1,-1,-1,-1,-1,-1,-1,-1,-1,-1,-1,-1,-1,-1,-1,-1],"loss_changes":[5.660236E11,4.693326E11,4.8616774E11,2.8921165E11,7.931947E10,9.784758E10,4.704404E11,3.1777273E11,1.9068869E11,1.680635E11,1.0973554E11,3.971299E10,1.0522263E11,1.4333706E11,9.892809E9,2.2428497E11,1.3998403E11,1.4933416E11,2.0853145E12,8.767063E10,6.694246E10,9.133851E9,1.7747649E11,2.6513375E10,1.1870721E9,3.9801836E10,8.682545E10,4.180067E11,3.437793E11,8.841747E9,9.978366E9,9.8465415E10,5.775868E10,6.908953E10,7.590411E10,7.8028544E11,4.251915E10,1.5490836E11,3.5680266E11,1.6756359E10,6.966891E10,0E0,3.8930792E10,6.0864266E9,1.1376722E10,2.870312E11,1.9847732E11,1.3649386E10,5.5474504E10,3.1786624E8,1.8889382E8,6.6624745E10,4.4228354E10,1.2808988E11,6.900643E10,2.4129765E11,2.1639568E11,2.7071928E10,2.3213769E10,1.0507372E10,1.7783849E9,1.9571454E10,2.0655785E9,0E0,0E0,0E0,0E0,0E0,0E0,0E0,0E0,0E0,0E0,0E0,0E0,0E0,0E0,0E0,0E0,0E0,0E0,0E0,0E0,0E0,0E0,0E0,0E0,0E0,0E0,0E0,0E0,0E0,0E0,0E0,0E0,0E0,0E0,0E0,0E0,0E0,0E0,0E0,0E0,0E0,0E0,0E0,0E0,0E0,0E0,0E0,0E0,0E0,0E0,0E0,0E0,0E0,0E0,0E0,0E0,0E0,0E0,0E0,0E0,0E0,0E0],"parents":[2147483647,0,0,1,1,2,2,3,3,4,4,5,5,6,6,7,7,8,8,9,9,10,10,11,11,12,12,13,13,14,14,15,15,16,16,17,17,18,18,19,19,20,20,21,21,22,22,23,23,24,24,25,25,26,26,27,27,28,28,29,29,30,30,31,31,32,32,33,33,34,34,35,35,36,36,37,37,38,38,39,39,40,40,42,42,43,43,44,44,45,45,46,46,47,47,48,48,49,49,50,50,51,51,52,52,53,53,54,54,55,55,56,56,57,57,58,58,59,59,60,60,61,61,62,62],"right_children":[2,4,6,8,10,12,14,16,18,20,22,24,26,28,30,32,34,36,38,40,42,44,46,48,50,52,54,56,58,60,62,64,66,68,70,72,74,76,78,80,82,-1,84,86,88,90,92,94,96,98,100,102,104,106,108,110,112,114,116,118,120,122,124,-1,-1,-1,-1,-1,-1,-1,-1,-1,-1,-1,-1,-1,-1,-1,-1,-1,-1,-1,-1,-1,-1,-1,-1,-1,-1,-1,-1,-1,-1,-1,-1,-1,-1,-1,-1,-1,-1,-1,-1,-1,-1,-1,-1,-1,-1,-1,-1,-1,-1,-1,-1,-1,-1,-1,-1,-1,-1,-1,-1,-1,-1],"split_conditions":[9E1,2.4E1,1.84109E5,1.8E1,2.4E1,2E0,9.6E1,1.3275667E2,3.8E1,2.3E1,3.4E1,9.6E1,3.6E1,9.3E1,3.2E1,1.1E1,2E1,2.4E1,4.1E1,1.84109E5,5.7197E4,1.12238E5,4.1E1,9.2E1,9.8E1,1.7E1,9.3E1,9.2E1,9.5E1,9.8E1,2.0344759E2,3E0,2E1,3E0,2.1E1,2.3E1,3.5E1,3.9E1,4.6E1,1.3476778E2,1.9E1,-1.1491592E3,2.03819E5,1.03681E5,2.03819E5,3.8E1,4.6E1,9.1E1,9.3E1,2.141647E2,9.9E1,1.26512E5,8.595E0,9.2E1,1.927252E2,9.1E1,2.8E1,2.0344759E2,2.8E1,2.8E1,9.9E1,9.7E1,9.8E1,8.516055E3,3.685757E3,1.1126119E3,4.7728584E3,1.2757682E3,-1.7584097E2,3.3582532E3,1.0139626E3,-7.2432764E2,5.184864E3,-6.891669E2,-1.5696406E3,7.948665E3,4.563764E3,-2.022964E3,9.8179344E1,-9.482229E2,-4.989088E2,4.9058066E2,-1.1475728E3,2.5633123E3,6.2362876E3,-1.2485728E3,-4.584508E2,-1.7140402E3,-1.0592837E3,-9.372382E2,2.2600652E3,-2.4293418E3,-5.841997E2,4.182543E3,-6.1786835E2,1.1859494E4,3.9651023E3,4.8961993E2,1.2897631E3,3.510982E1,-8.6779E2,-1.299137E3,8.253918E2,5.518407E2,-7.5454565E2,1.0310825E3,5.567981E3,-4.9769922E2,1.7730715E3,5.468316E3,2.3244556E2,1.1313448E4,3.9152761E3,4.2837914E1,1.8033682E3,6.9364634E3,4.4772026E3,3.7523758E2,1.9905686E3,-4.7452282E1,-7.698675E2,-3.8193909E3,-3.6076074E2,1.1657666E3,-3.5398715E2],"split_indices":[1,0,7,1,1,0,1,4,1,1,1,1,0,1,0,0,0,1,1,7,7,7,1,1,1,0,1,1,1,1,4,1,0,0,0,1,1,1,1,4,1,0,7,7,7,1,1,1,1,4,1,7,5,1,4,1,0,4,0,0,1,1,1,0,0,0,0,0,0,0,0,0,0,0,0,0,0,0,0,0,0,0,0,0,0,0,0,0,0,0,0,0,0,0,0,0,0,0,0,0,0,0,0,0,0,0,0,0,0,0,0,0,0,0,0,0,0,0,0,0,0,0,0,0,0],"split_type":[0,0,0,0,0,0,0,0,0,0,0,0,0,0,0,0,0,0,0,0,0,0,0,0,0,0,0,0,0,0,0,0,0,0,0,0,0,0,0,0,0,0,0,0,0,0,0,0,0,0,0,0,0,0,0,0,0,0,0,0,0,0,0,0,0,0,0,0,0,0,0,0,0,0,0,0,0,0,0,0,0,0,0,0,0,0,0,0,0,0,0,0,0,0,0,0,0,0,0,0,0,0,0,0,0,0,0,0,0,0,0,0,0,0,0,0,0,0,0,0,0,0,0,0,0],"sum_hessian":[3.15159E5,2.73964E5,4.1195E4,1.49229E5,1.24735E5,2.6468E4,1.4727E4,3.9558E4,1.09671E5,4.7905E4,7.683E4,9.69E2,2.5499E4,9.615E3,5.112E3,1.0336E4,2.9222E4,4.6929E4,6.2742E4,4.6023E4,1.882E3,1.8303E4,5.8527E4,6.37E2,3.32E2,1.7867E4,7.632E3,4.756E3,4.859E3,4.051E3,1.061E3,3.477E3,6.859E3,2.2827E4,6.395E3,1.3756E4,3.3173E4,4.879E3,5.7863E4,3.0566E4,1.5457E4,3.65E2,1.517E3,5.423E3,1.288E4,1.0141E4,4.8386E4,2.12E2,4.25E2,2.02E2,1.3E2,7.239E3,1.0628E4,2.54E3,5.092E3,3.168E3,1.588E3,3.271E3,1.588E3,2.383E3,1.668E3,7.17E2,3.44E2,4.34E2,3.043E3,6.447E3,4.12E2,3.481E3,1.9346E4,1.689E3,4.706E3,1.1311E4,2.445E3,2.7139E4,6.034E3,2.429E3,2.45E3,8.338E3,4.9525E4,1.3006E4,1.756E4,1.2589E4,2.868E3,1.184E3,3.33E2,4.32E3,1.103E3,9.703E3,3.177E3,5.368E3,4.773E3,5.987E3,4.2399E4,1.09E2,1.03E2,1.07E2,3.18E2,7E1,1.32E2,1.05E2,2.5E1,5.487E3,1.752E3,7.173E3,3.455E3,1.707E3,8.33E2,3.139E3,1.953E3,1.573E3,1.595E3,1.047E3,5.41E2,1.959E3,1.312E3,1.064E3,5.24E2,1.938E3,4.45E2,1.264E3,4.04E2,2.06E2,5.11E2,2.17E2,1.27E2],"tree_param":{"num_deleted":"0","num_feature":"9","num_nodes":"125","size_leaf_vector":"1"}},{"base_weights":[1.1898711E0,-8.423859E2,1.4903524E3,-1.063293E3,1.149361E3,8.308573E2,5.444277E3,-3.9575665E2,-1.8860461E3,9.186854E3,-3.77645E2,2.1391252E3,-6.8564136E2,7.834243E3,2.173512E2,5.5592627E3,-8.486643E2,-2.937189E3,-1.384857E3,3.3850637E4,8.39034E3,-5.3976055E3,6.2865857E2,1.5248427E3,6.341868E3,1.2625679E3,-1.3878877E3,1.0276629E4,2.9903792E3,2.7189216E3,-1.7482378E2,1.6481268E4,3.5517263E3,-1.7263252E2,-2.5078008E3,-2.3397095E3,-3.462791E3,2.1165892E2,-1.6070137E3,1.1624561E4,2.8177768E4,2.7781963E4,7.6896777E3,-3.7395792E2,-7.251709E3,3.4460747E3,-1.3668452E3,7.685159E3,1.313704E3,1.6770824E4,4.7750894E3,-5.1902985E1,5.249784E3,-2.2290654E3,-3.3427032E2,1.7240973E4,5.7300254E3,-4.8277164E2,1.0332282E4,4.4414414E3,3.8574016E0,3.032633E2,-1.6872511E3,3.589548E3,8.1236816E3,1.5404834E3,-1.8017539E3,-6.2153174E2,4.564778E2,-1.4528229E3,-5.2250916E2,-2.1619095E2,-8.2220917E2,-1.2872031E3,-8.384452E2,-2.3453635E2,1.8755278E3,-3.6217007E2,-6.4441003E2,1.040986E3,8.583358E3,7.198026E3,1.327965E4,-2.5219374E2,2.8647312E3,2.7587168E3,-2.1904163E3,-1.6631278E3,-2.5535227E3,-3.0339404E2,2.1348838E3,2.2813742E-1,-5.60597E2,2.8549479E1,4.5586035E3,-2.1821619E3,4.39616E2,2.9834324E3,1.1284637E4,1.1443191E3,3.0388704E3,2.5084853E2,-2.9693772E3,4.3891465E3,6.348959E2,-4.387874E2,-2.1046333E3,3.9297197E3,-3.216994E2,2.9763381E3,7.367714E3,2.5386045E3,-2.4399182E3,-5.432953E2,2.2300164E3,-1.900308E3,4.009301E3,7.0814557E2,1.6184542E3,-1.2274218E2,7.6082574E2,5.416403E2,-1.7118965E2,-9.526191E2,4.2441245E2],"categories":[],"categories_nodes":[],"categories_segments":[],"categories_sizes":[],"default_left":[0,0,0,0,0,0,0,0,0,0,0,0,0,0,0,0,0,0,0,0,0,0,0,0,0,0,0,0,0,0,0,0,0,0,0,0,0,0,0,0,0,0,0,0,0,0,0,0,0,0,0,0,0,0,0,0,0,0,0,0,0,0,0,0,0,0,0,0,0,0,0,0,0,0,0,0,0,0,0,0,0,0,0,0,0,0,0,0,0,0,0,0,0,0,0,0,0,0,0,0,0,0,0,0,0,0,0,0,0,0,0,0,0,0,0,0,0,0,0,0,0,0,0,0,0],"id":6,"left_children":[1,3,5,7,9,11,13,15,17,19,21,23,25,27,29,31,33,35,37,39,41,43,45,47,49,51,53,55,57,59,61,63,65,67,69,71,73,75,77,-1,79,81,83,85,87,89,91,93,95,97,99,101,103,105,107,109,111,113,115,117,119,121,123,-1,-1,-1,-1,-1,-1,-1,-1,-1,-1,-1,-1,-1,-1,-1,-1,-1,-1,-1,-1,-1,-1,-1,-1,-1,-1,-1,-1,-1,-1,-1,-1,-1,-1,-1,-1,-1,-1,-1,-1,-1,-1,-1,-1,-1,-1,-1,-1,-1,-1,-1,-1,-1,-1,-1,-1,-1,-1,-1,-1,-1,-1],"loss_changes":[3.9591202E11,8.852344E10,2.9718295E11,9.946533E10,2.4653722E11,1.937953E11,2.035209E11,2.6967163E11,4.273219E10,6.271764E10,8.527952E10,1.3537318E11,6.1895627E10,1.322352E11,5.0166E9,1.5489478E11,1.042202E11,8.216494E9,1.9483427E10,1.6866673E9,4.201467E10,2.6254475E10,7.906921E10,5.9501265E10,1.0918463E11,6.2825087E10,2.9471592E10,2.3522889E11,9.560275E10,3.2409718E9,3.1972127E9,5.217865E10,9.038236E10,2.1242715E11,4.81105E10,7.9575613E9,7.6919276E9,4.0274362E10,1.0427294E10,0E0,4.3617075E8,5.682381E9,4.7608365E10,5.051633E10,4.3839406E9,9.53996E10,5.650144E9,8.641397E10,5.763575E10,1.2384199E11,2.9873742E10,7.884331E10,8.732831E10,6.7823518E10,1.463935E11,1.5697596E11,1.7042519E11,2.6782974E10,6.0927795E10,8.2848E8,2.83405E8,4.4119363E9,4.9068616E9,0E0,0E0,0E0,0E0,0E0,0E0,0E0,0E0,0E0,0E0,0E0,0E0,0E0,0E0,0E0,0E0,0E0,0E0,0E0,0E0,0E0,0E0,0E0,0E0,0E0,0E0,0E0,0E0,0E0,0E0,0E0,0E0,0E0,0E0,0E0,0E0,0E0,0E0,0E0,0E0,0E0,0E0,0E0,0E0,0E0,0E0,0E0,0E0,0E0,0E0,0E0,0E0,0E0,0E0,0E0,0E0,0E0,0E0,0E0,0E0,0E0,0E0],"parents":[2147483647,0,0,1,1,2,2,3,3,4,4,5,5,6,6,7,7,8,8,9,9,10,10,11,11,12,12,13,13,14,14,15,15,16,16,17,17,18,18,19,19,20,20,21,21,22,22,23,23,24,24,25,25,26,26,27,27,28,28,29,29,30,30,31,31,32,32,33,33,34,34,35,35,36,36,37,37,38,38,40,40,41,41,42,42,43,43,44,44,45,45,46,46,47,47,48,48,49,49,50,50,51,51,52,52,53,53,54,54,55,55,56,56,57,57,58,58,59,59,60,60,61,61,62,62],"right_children":[2,4,6,8,10,12,14,16,18,20,22,24,26,28,30,32,34,36,38,40,42,44,46,48,50,52,54,56,58,60,62,64,66,68,70,72,74,76,78,-1,80,82,84,86,88,90,92,94,96,98,100,102,104,106,108,110,112,114,116,118,120,122,124,-1,-1,-1,-1,-1,-1,-1,-1,-1,-1,-1,-1,-1,-1,-1,-1,-1,-1,-1,-1,-1,-1,-1,-1,-1,-1,-1,-1,-1,-1,-1,-1,-1,-1,-1,-1,-1,-1,-1,-1,-1,-1,-1,-1,-1,-1,-1,-1,-1,-1,-1,-1,-1,-1,-1,-1,-1,-1,-1,-1,-1,-1],"split_conditions":[1.84109E5,9.2E1,8.7E1,1.8261041E2,9.3E1,2.1E1,9.6E1,1.1E1,6.664E0,4.781E0,9.4E1,1.1E1,1.8E1,2.8E1,5E0,1.1E1,1.23737E5,7.0713E4,2E0,2.4E1,2E0,1E0,9.6E1,3E0,9E0,1.3E1,4.6E1,2.0375E5,2.106766E2,9.8E1,3.2E1,8E0,8E1,1.03681E5,1.6E1,1.2E1,1.26512E5,7.9E1,3.9E1,1.1624561E4,3.409E0,1.1E1,1E1,1.52513E5,9.3638E4,9.5E1,9.7E1,2E0,4E0,7E0,7.2E1,1.2E1,1.4E1,4.1E1,4.7E1,7E0,1.8203477E2,9.5E1,9E1,5E0,1.1E1,2.03819E5,2.0344759E2,3.589548E3,8.1236816E3,1.5404834E3,-1.8017539E3,-6.2153174E2,4.564778E2,-1.4528229E3,-5.2250916E2,-2.1619095E2,-8.2220917E2,-1.2872031E3,-8.384452E2,-2.3453635E2,1.8755278E3,-3.6217007E2,-6.4441003E2,1.040986E3,8.583358E3,7.198026E3,1.327965E4,-2.5219374E2,2.8647312E3,2.7587168E3,-2.1904163E3,-1.6631278E3,-2.5535227E3,-3.0339404E2,2.1348838E3,2.2813742E-1,-5.60597E2,2.8549479E1,4.5586035E3,-2.1821619E3,4.39616E2,2.9834324E3,1.1284637E4,1.1443191E3,3.0388704E3,2.5084853E2,-2.9693772E3,4.3891465E3,6.348959E2,-4.387874E2,-2.1046333E3,3.9297197E3,-3.216994E2,2.9763381E3,7.367714E3,2.5386045E3,-2.4399182E3,-5.432953E2,2.2300164E3,-1.900308E3,4.009301E3,7.0814557E2,1.6184542E3,-1.2274218E2,7.6082574E2,5.416403E2,-1.7118965E2,-9.526191E2,4.2441245E2],"split_indices":[7,1,1,4,1,0,1,0,5,5,1,8,1,0,0,1,7,7,0,0,0,6,1,1,1,1,1,7,4,1,0,1,1,7,0,1,7,1,1,0,3,8,0,7,7,1,1,1,1,1,1,1,1,1,1,0,4,1,1,8,8,7,4,0,0,0,0,0,0,0,0,0,0,0,0,0,0,0,0,0,0,0,0,0,0,0,0,0,0,0,0,0,0,0,0,0,0,0,0,0,0,0,0,0,0,0,0,0,0,0,0,0,0,0,0,0,0,0,0,0,0,0,0,0,0],"split_type":[0,0,0,0,0,0,0,0,0,0,0,0,0,0,0,0,0,0,0,0,0,0,0,0,0,0,0,0,0,0,0,0,0,0,0,0,0,0,0,0,0,0,0,0,0,0,0,0,0,0,0,0,0,0,0,0,0,0,0,0,0,0,0,0,0,0,0,0,0,0,0,0,0,0,0,0,0,0,0,0,0,0,0,0,0,0,0,0,0,0,0,0,0,0,0,0,0,0,0,0,0,0,0,0,0,0,0,0,0,0,0,0,0,0,0,0,0,0,0,0,0,0,0,0,0],"sum_hessian":[3.15159E5,2.0119E5,1.13969E5,1.81104E5,2.0086E4,9.7678E4,1.6291E4,9.9984E4,8.112E4,3.206E3,1.688E4,5.2439E4,4.5239E4,1.1179E4,5.112E3,7.066E3,9.2918E4,2.6189E4,5.4931E4,9.9E1,3.107E3,2.818E3,1.4062E4,4.5753E4,6.686E3,1.1986E4,3.3253E4,7.431E3,3.748E3,6.92E2,4.42E3,1.096E3,5.97E3,6.6019E4,2.6899E4,1.2259E4,1.393E4,6.71E3,4.8221E4,5E1,4.9E1,1.07E2,3E3,7.6E2,2.058E3,5.83E3,8.232E3,1.515E3,4.4238E4,8.72E2,5.814E3,9.015E3,2.971E3,1.849E4,1.4763E4,2.934E3,4.497E3,2.545E3,1.203E3,4.23E2,2.69E2,3.359E3,1.061E3,7.7E2,3.26E2,5.122E3,8.48E2,3.1127E4,3.4892E4,6.644E3,2.0255E4,2.434E3,9.825E3,6.218E3,7.712E3,5.763E3,9.47E2,2.7732E4,2.0489E4,1E0,4.8E1,8.9E1,1.8E1,5.37E2,2.463E3,3.19E2,4.41E2,8.76E2,1.182E3,2.633E3,3.197E3,2.21E3,6.022E3,7.54E2,7.61E2,7.67E2,4.3471E4,6.58E2,2.14E2,4.931E3,8.83E2,8.27E3,7.45E2,7.43E2,2.228E3,1.5939E4,2.551E3,7.68E2,1.3995E4,1.468E3,1.466E3,3.757E3,7.4E2,2.18E3,3.65E2,1.85E2,1.018E3,1.34E2,2.89E2,2.32E2,3.7E1,1.235E3,2.124E3,7.17E2,3.44E2],"tree_param":{"num_deleted":"0","num_feature":"9","num_nodes":"125","size_leaf_vector":"1"}},{"base_weights":[1.1199837E0,-5.8942786E2,1.0436128E3,-8.2252234E2,1.0225945E3,3.4529535E2,3.0586082E3,-1.054763E3,5.236144E2,-1.0366437E3,1.9231332E3,1.9599734E3,-7.772474E2,1.0678858E4,2.6188628E3,-9.159205E2,-5.058682E3,-6.480181E1,3.1940552E3,-1.4003268E3,8.260379E2,8.279072E3,1.1987808E3,1.4095608E3,1.3238641E4,-2.8507546E3,-6.106411E1,6.884472E3,3.661062E4,2.1987703E3,8.584859E3,-1.1448634E3,8.8875946E2,-3.0188171E3,-5.871856E3,-8.446798E2,2.1166887E3,7.5357427E3,2.1326482E3,-3.956902E2,-1.9624792E3,-2.6799265E3,2.918835E3,4.99054E3,2.8118809E4,5.169387E2,2.9703403E3,7.9647E2,5.580877E3,1.6047911E4,5.4594937E3,-6.332052E2,-4.168518E3,2.8217332E3,-1.5359237E3,1.3839429E4,-1.01540204E3,3.330417E4,1.615465E5,2.961454E3,-2.3131914E3,1.0612527E4,-4.5743504E1,-2.0867023E2,-9.338028E2,1.0057089E3,-4.976447E2,-5.3185925E2,-1.3147206E3,-1.9160629E3,-1.491713E3,-1.0344273E1,-1.0455662E3,-1.6743286E3,8.831765E2,2.9949453E3,2.3463182E2,-7.312506E2,8.357614E2,-3.2182137E1,-7.764978E2,-7.087315E2,7.5585513E0,-1.1908911E3,-1.5605511E2,3.34012E3,5.4298126E2,2.173123E3,-1.7964637E3,4.8452505E3,1.1309234E4,3.2761374E2,-1.0256069E3,1.4004632E4,7.326502E1,4.806417E2,-6.162663E2,3.3387634E3,8.458285E2,4.4007065E3,1.0120802E4,1.4338329E3,4.2174688E3,-9.532591E2,1.9234596E2,-1.7289025E3,-9.336073E2,-3.0673352E2,4.175421E3,-1.5872909E3,-1.4299281E2,8.733793E3,2.3896794E3,1.4533633E3,-1.0421622E3,-5.1628047E3,1.1703718E4,6.141587E4,-1.6718585E3,1.1996421E3,-2.4411613E1,1.6021526E3,-1.00230457E3,1.4181921E3,5.6084224E3,-2.4967275E3,1.0990496E3],"categories":[],"categories_nodes":[],"categories_segments":[],"categories_sizes":[],"default_left":[0,0,0,0,0,0,0,0,0,0,0,0,0,0,0,0,0,0,0,0,0,0,0,0,0,0,0,0,0,0,0,0,0,0,0,0,0,0,0,0,0,0,0,0,0,0,0,0,0,0,0,0,0,0,0,0,0,0,0,0,0,0,0,0,0,0,0,0,0,0,0,0,0,0,0,0,0,0,0,0,0,0,0,0,0,0,0,0,0,0,0,0,0,0,0,0,0,0,0,0,0,0,0,0,0,0,0,0,0,0,0,0,0,0,0,0,0,0,0,0,0,0,0,0,0,0,0],"id":7,"left_children":[1,3,5,7,9,11,13,15,17,19,21,23,25,27,29,31,33,35,37,39,41,43,45,47,49,51,53,55,57,59,61,63,65,67,69,71,73,75,77,79,81,83,85,87,89,91,93,95,97,99,101,103,105,107,109,111,113,115,117,119,121,123,125,-1,-1,-1,-1,-1,-1,-1,-1,-1,-1,-1,-1,-1,-1,-1,-1,-1,-1,-1,-1,-1,-1,-1,-1,-1,-1,-1,-1,-1,-1,-1,-1,-1,-1,-1,-1,-1,-1,-1,-1,-1,-1,-1,-1,-1,-1,-1,-1,-1,-1,-1,-1,-1,-1,-1,-1,-1,-1,-1,-1,-1,-1,-1,-1],"loss_changes":[1.940263E11,7.559906E10,1.6036689E11,5.495268E10,4.7135883E10,1.5341353E11,9.82627E10,8.333355E10,4.06411E10,5.2403676E9,8.140613E10,2.1546448E11,7.414496E10,1.5718017E11,6.9487526E10,5.9864613E10,8.315912E9,3.6060766E10,2.1504676E10,3.6537784E9,9.282134E9,1.1788538E11,1.917546E10,8.463767E10,3.520617E10,3.7454184E10,1.5779422E11,7.676982E10,7.889104E10,8.916835E10,3.1920464E10,1.1367752E11,1.0238318E11,2.428544E9,1.6317809E9,3.3403892E10,3.5561832E10,1.5149195E10,1.1213708E10,1.4687692E9,3.2984668E9,1.3154493E9,7.1945554E9,3.8460498E10,2.885283E10,2.5953702E10,5.257387E11,6.6279543E10,6.4946856E10,2.8431581E10,2.4472658E9,1.5497381E10,1.3526008E10,5.358199E11,9.76567E10,6.6424308E10,9.453096E9,5.8339836E10,3.721614E10,6.996065E10,2.9494194E10,7.0166E10,1.0714163E10,0E0,0E0,0E0,0E0,0E0,0E0,0E0,0E0,0E0,0E0,0E0,0E0,0E0,0E0,0E0,0E0,0E0,0E0,0E0,0E0,0E0,0E0,0E0,0E0,0E0,0E0,0E0,0E0,0E0,0E0,0E0,0E0,0E0,0E0,0E0,0E0,0E0,0E0,0E0,0E0,0E0,0E0,0E0,0E0,0E0,0E0,0E0,0E0,0E0,0E0,0E0,0E0,0E0,0E0,0E0,0E0,0E0,0E0,0E0,0E0,0E0,0E0,0E0,0E0],"parents":[2147483647,0,0,1,1,2,2,3,3,4,4,5,5,6,6,7,7,8,8,9,9,10,10,11,11,12,12,13,13,14,14,15,15,16,16,17,17,18,18,19,19,20,20,21,21,22,22,23,23,24,24,25,25,26,26,27,27,28,28,29,29,30,30,31,31,32,32,33,33,34,34,35,35,36,36,37,37,38,38,39,39,40,40,41,41,42,42,43,43,44,44,45,45,46,46,47,47,48,48,49,49,50,50,51,51,52,52,53,53,54,54,55,55,56,56,57,57,58,58,59,59,60,60,61,61,62,62],"right_children":[2,4,6,8,10,12,14,16,18,20,22,24,26,28,30,32,34,36,38,40,42,44,46,48,50,52,54,56,58,60,62,64,66,68,70,72,74,76,78,80,82,84,86,88,90,92,94,96,98,100,102,104,106,108,110,112,114,116,118,120,122,124,126,-1,-1,-1,-1,-1,-1,-1,-1,-1,-1,-1,-1,-1,-1,-1,-1,-1,-1,-1,-1,-1,-1,-1,-1,-1,-1,-1,-1,-1,-1,-1,-1,-1,-1,-1,-1,-1,-1,-1,-1,-1,-1,-1,-1,-1,-1,-1,-1,-1,-1,-1,-1,-1,-1,-1,-1,-1,-1,-1,-1,-1,-1,-1,-1],"split_conditions":[1.84109E5,1.1E1,7.2E1,8.7E1,7.0713E4,2.4E1,7.4E1,8.3E1,1.51315E5,9E1,8E0,2.3E1,3.2E1,1.1E1,2.19622E5,7.2E1,5.7197E4,2E0,9.1E1,1.7E1,7.658E0,7E0,7.2E1,1.1E1,2.9E1,2.7E1,4.1E1,2.1E1,6.444E1,2.06302E5,9.6E1,4.7E1,8E1,8.5E1,2.4E1,2.106766E2,9E1,7.982E0,9.2E1,7.4E1,7.7E1,1.7E1,9.1E1,6E0,1.2E1,5.6E1,7.4E1,1.8E1,8E0,1.2E1,1.2E1,2.5E1,2.9E1,3.8E1,4.6E1,4E0,2.8E1,2.732E0,3.243E0,3.2E1,8E1,9E1,9.7E1,-2.0867023E2,-9.338028E2,1.0057089E3,-4.976447E2,-5.3185925E2,-1.3147206E3,-1.9160629E3,-1.491713E3,-1.0344273E1,-1.0455662E3,-1.6743286E3,8.831765E2,2.9949453E3,2.3463182E2,-7.312506E2,8.357614E2,-3.2182137E1,-7.764978E2,-7.087315E2,7.5585513E0,-1.1908911E3,-1.5605511E2,3.34012E3,5.4298126E2,2.173123E3,-1.7964637E3,4.8452505E3,1.1309234E4,3.2761374E2,-1.0256069E3,1.4004632E4,7.326502E1,4.806417E2,-6.162663E2,3.3387634E3,8.458285E2,4.4007065E3,1.0120802E4,1.4338329E3,4.2174688E3,-9.532591E2,1.9234596E2,-1.7289025E3,-9.336073E2,-3.0673352E2,4.175421E3,-1.5872909E3,-1.4299281E2,8.733793E3,2.3896794E3,1.4533633E3,-1.0421622E3,-5.1628047E3,1.1703718E4,6.141587E4,-1.6718585E3,1.1996421E3,-2.4411613E1,1.6021526E3,-1.00230457E3,1.4181921E3,5.6084224E3,-2.4967275E3,1.0990496E3],"split_indices":[7,8,1,1,7,1,1,1,7,1,1,1,1,8,7,1,7,6,1,0,5,1,1,8,0,1,1,0,2,7,1,1,1,1,0,4,1,5,1,1,1,0,1,1,8,1,1,1,1,8,8,1,1,1,1,8,0,3,3,0,1,1,1,0,0,0,0,0,0,0,0,0,0,0,0,0,0,0,0,0,0,0,0,0,0,0,0,0,0,0,0,0,0,0,0,0,0,0,0,0,0,0,0,0,0,0,0,0,0,0,0,0,0,0,0,0,0,0,0,0,0,0,0,0,0,0,0],"split_type":[0,0,0,0,0,0,0,0,0,0,0,0,0,0,0,0,0,0,0,0,0,0,0,0,0,0,0,0,0,0,0,0,0,0,0,0,0,0,0,0,0,0,0,0,0,0,0,0,0,0,0,0,0,0,0,0,0,0,0,0,0,0,0,0,0,0,0,0,0,0,0,0,0,0,0,0,0,0,0,0,0,0,0,0,0,0,0,0,0,0,0,0,0,0,0,0,0,0,0,0,0,0,0,0,0,0,0,0,0,0,0,0,0,0,0,0,0,0,0,0,0,0,0,0,0,0,0],"sum_hessian":[3.15159E5,2.0119E5,1.13969E5,1.75774E5,2.5416E4,8.4638E4,2.9331E4,1.49911E5,2.5863E4,7.733E3,1.7683E4,3.471E4,4.9928E4,1.599E3,2.7732E4,1.44888E5,5.023E3,2.1194E4,4.669E3,6.47E3,1.263E3,1.808E3,1.5875E4,3.3096E4,1.614E3,1.2817E4,3.7111E4,1.396E3,2.03E2,2.5909E4,1.823E3,1.28577E5,1.6311E4,1.433E3,3.59E3,1.5613E4,5.581E3,9.16E2,3.753E3,2.322E3,4.148E3,4.72E2,7.91E2,1.552E3,2.56E2,1.1464E4,4.411E3,2.8856E4,4.24E3,1.185E3,4.29E2,4.778E3,8.039E3,1.256E4,2.4551E4,7.42E2,6.54E2,1.99E2,4E0,2.2163E4,3.746E3,1.476E3,3.47E2,1.04678E5,2.3899E4,8.292E3,8.019E3,7.5E2,6.83E2,2.279E3,1.311E3,1.1948E4,3.665E3,5.41E2,5.04E3,6.72E2,2.44E2,4.69E2,3.284E3,2.053E3,2.69E2,3.453E3,6.95E2,2.95E2,1.77E2,9.3E1,6.98E2,1.288E3,2.64E2,1.15E2,1.41E2,1.0003E4,1.461E3,2.58E2,4.153E3,2.2498E4,6.358E3,1.408E3,2.832E3,1.101E3,8.4E1,3.99E2,3E1,1.594E3,3.184E3,3.202E3,4.837E3,9.329E3,3.231E3,5.401E3,1.915E4,2.05E2,5.37E2,1.93E2,4.61E2,2E1,1.79E2,3E0,1E0,1.6528E4,5.635E3,4.43E2,3.303E3,8.55E2,6.21E2,1.07E2,2.4E2],"tree_param":{"num_deleted":"0","num_feature":"9","num_nodes":"127","size_leaf_vector":"1"}},{"base_weights":[1.2113932E0,5.387179E2,-6.2322687E2,1.2656125E3,-7.4966644E2,-9.101758E2,1.0766917E3,4.308E3,7.944868E2,1.2687504E3,-1.2051852E3,-1.090375E3,6.134389E2,-1.7293433E2,3.6448684E3,9.617586E3,3.529502E3,-4.3430508E2,2.2147896E3,1.5910295E2,7.980071E3,-1.5835753E3,9.206308E2,-1.7622972E3,-5.953323E2,2.5852368E3,-1.3453441E3,-1.0749222E3,5.241308E3,5.762967E3,-5.6171814E2,6.448231E3,1.5643653E4,2.2650293E3,6.594671E3,4.8538662E1,-3.2503315E3,3.5776875E3,8.618458E1,2.2873845E3,-5.4262756E2,1.1598933E4,5.544624E2,-1.1738292E3,-2.534476E3,5.9009736E3,-1.6116101E3,-1.5080402E3,-2.6466514E3,-1.342255E3,-1.7585706E2,1.150645E4,1.9668593E3,-1.7809794E3,2.020405E3,-2.35775E3,9.6699084E2,1.0251209E4,2.558592E2,-2.0819973E3,7.0318896E3,2.0107756E3,-1.5969347E3,3.0084475E3,-3.9286638E3,4.336269E3,1.0549498E4,1.5742212E3,3.0973016E2,5.8561367E3,1.1832633E3,1.8865382E3,-4.1507744E1,-2.1287039E3,-8.6544696E2,7.4993823E2,2.0676995E3,7.3981934E2,-8.57548E2,-3.1318478E1,1.3054966E3,-7.3208856E2,3.0306952E2,4.297904E3,2.4127493E3,4.7326974E2,-3.0976483E2,-8.826994E1,-6.0845776E2,-4.9709982E2,-9.099377E2,1.324792E3,4.7380854E3,-2.8920758E2,-1.2659674E3,-5.8126324E2,-2.7541425E2,-8.325792E2,-2.7532147E2,-3.2891006E2,-7.159878E2,-7.441848E0,-8.523238E2,8.568352E2,4.319706E3,1.2448387E3,3.0059406E2,-4.8288608E2,-3.0539795E3,6.2507773E3,-4.0122964E2,-2.0926874E2,-1.6517134E3,1.4671932E3,-3.0744135E2,4.817655E3,-7.898506E1,-1.1009535E3,1.4126555E3,-1.448002E3,-1.9478972E2,1.5394791E3,3.2171113E3,-2.3196748E3,6.698589E2,-1.3678235E2,-7.868725E2],"categories":[],"categories_nodes":[],"categories_segments":[],"categories_sizes":[],"default_left":[0,0,0,0,0,0,0,0,0,0,0,0,0,0,0,0,0,0,0,0,0,0,0,0,0,0,0,0,0,0,0,0,0,0,0,0,0,0,0,0,0,0,0,0,0,0,0,0,0,0,0,0,0,0,0,0,0,0,0,0,0,0,0,0,0,0,0,0,0,0,0,0,0,0,0,0,0,0,0,0,0,0,0,0,0,0,0,0,0,0,0,0,0,0,0,0,0,0,0,0,0,0,0,0,0,0,0,0,0,0,0,0,0,0,0,0,0,0,0,0,0,0,0,0,0,0,0],"id":8,"left_children":[1,3,5,7,9,11,13,15,17,19,21,23,25,27,29,31,33,35,37,39,41,43,45,47,49,51,53,55,57,59,61,63,65,67,69,71,73,75,77,79,81,83,85,87,89,91,93,95,97,99,101,103,105,107,109,111,113,115,117,119,121,123,125,-1,-1,-1,-1,-1,-1,-1,-1,-1,-1,-1,-1,-1,-1,-1,-1,-1,-1,-1,-1,-1,-1,-1,-1,-1,-1,-1,-1,-1,-1,-1,-1,-1,-1,-1,-1,-1,-1,-1,-1,-1,-1,-1,-1,-1,-1,-1,-1,-1,-1,-1,-1,-1,-1,-1,-1,-1,-1,-1,-1,-1,-1,-1,-1],"loss_changes":[1.0578053E11,1.5861929E11,7.111634E10,1.5519937E11,5.6170226E10,3.4247459E10,6.7574825E10,5.9980366E10,1.6363969E11,8.377226E10,4.009455E10,3.7101855E10,5.0959122E10,6.918156E10,6.1410714E10,3.5346383E10,4.906849E10,6.8353675E10,1.2617312E11,1.4419299E10,4.2881688E10,1.6482951E10,9.499878E10,1.0635624E10,2.0123087E10,3.6249534E10,9.708634E9,3.1809933E10,5.0525045E10,4.5646758E10,6.152281E9,8.534907E10,1.4328775E10,3.2957817E10,1.266138E11,5.004837E10,1.0321248E10,9.471643E10,1.1898852E11,1.1820304E10,2.1399257E10,1.0292724E10,8.524357E8,2.2222598E10,5.569839E9,3.722964E10,8.4312156E9,9.311838E9,2.3466803E9,5.928915E9,1.6558217E10,1.0618114E10,1.2947425E10,8.418984E9,4.7981064E10,3.89732E10,3.6626633E10,6.16182E10,1.7760629E10,2.5096003E9,2.762824E10,1.4518653E9,1.9268308E9,0E0,0E0,0E0,0E0,0E0,0E0,0E0,0E0,0E0,0E0,0E0,0E0,0E0,0E0,0E0,0E0,0E0,0E0,0E0,0E0,0E0,0E0,0E0,0E0,0E0,0E0,0E0,0E0,0E0,0E0,0E0,0E0,0E0,0E0,0E0,0E0,0E0,0E0,0E0,0E0,0E0,0E0,0E0,0E0,0E0,0E0,0E0,0E0,0E0,0E0,0E0,0E0,0E0,0E0,0E0,0E0,0E0,0E0,0E0,0E0,0E0,0E0,0E0,0E0],"parents":[2147483647,0,0,1,1,2,2,3,3,4,4,5,5,6,6,7,7,8,8,9,9,10,10,11,11,12,12,13,13,14,14,15,15,16,16,17,17,18,18,19,19,20,20,21,21,22,22,23,23,24,24,25,25,26,26,27,27,28,28,29,29,30,30,31,31,32,32,33,33,34,34,35,35,36,36,37,37,38,38,39,39,40,40,41,41,42,42,43,43,44,44,45,45,46,46,47,47,48,48,49,49,50,50,51,51,52,52,53,53,54,54,55,55,56,56,57,57,58,58,59,59,60,60,61,61,62,62],"right_children":[2,4,6,8,10,12,14,16,18,20,22,24,26,28,30,32,34,36,38,40,42,44,46,48,50,52,54,56,58,60,62,64,66,68,70,72,74,76,78,80,82,84,86,88,90,92,94,96,98,100,102,104,106,108,110,112,114,116,118,120,122,124,126,-1,-1,-1,-1,-1,-1,-1,-1,-1,-1,-1,-1,-1,-1,-1,-1,-1,-1,-1,-1,-1,-1,-1,-1,-1,-1,-1,-1,-1,-1,-1,-1,-1,-1,-1,-1,-1,-1,-1,-1,-1,-1,-1,-1,-1,-1,-1,-1,-1,-1,-1,-1,-1,-1,-1,-1,-1,-1,-1,-1,-1,-1,-1,-1],"split_conditions":[2.4E1,2.1147133E2,9E1,6.054E0,3E0,2.04184E5,1.9807956E2,1E1,1.25833E5,8.7E1,1.2E1,3.4E1,2.8E1,2.04184E5,9.6E1,7E0,7.2E1,1.23737E5,2.0375E5,1.7E1,9.6E1,5.8E1,2.1E1,3.2E1,1.3508374E2,5E0,7.9E1,3.9E1,2.8E1,2.6E1,9.7E1,6E0,1.2E1,2.4E1,8E1,3E0,7E0,7.2E1,1.4E1,8E0,3.8E1,9.3E1,9.8E1,7E0,6.338E0,8.7E1,8E1,3.8E1,1.2E1,4.3E1,8.3E1,2E0,2.4E1,7.4E1,8E1,1E0,9.3E1,9.6E1,9.5E1,9.2E1,9.4E1,1.9921953E2,9.8E1,3.0084475E3,-3.9286638E3,4.336269E3,1.0549498E4,1.5742212E3,3.0973016E2,5.8561367E3,1.1832633E3,1.8865382E3,-4.1507744E1,-2.1287039E3,-8.6544696E2,7.4993823E2,2.0676995E3,7.3981934E2,-8.57548E2,-3.1318478E1,1.3054966E3,-7.3208856E2,3.0306952E2,4.297904E3,2.4127493E3,4.7326974E2,-3.0976483E2,-8.826994E1,-6.0845776E2,-4.9709982E2,-9.099377E2,1.324792E3,4.7380854E3,-2.8920758E2,-1.2659674E3,-5.8126324E2,-2.7541425E2,-8.325792E2,-2.7532147E2,-3.2891006E2,-7.159878E2,-7.441848E0,-8.523238E2,8.568352E2,4.319706E3,1.2448387E3,3.0059406E2,-4.8288608E2,-3.0539795E3,6.2507773E3,-4.0122964E2,-2.0926874E2,-1.6517134E3,1.4671932E3,-3.0744135E2,4.817655E3,-7.898506E1,-1.1009535E3,1.4126555E3,-1.448002E3,-1.9478972E2,1.5394791E3,3.2171113E3,-2.3196748E3,6.698589E2,-1.3678235E2,-7.868725E2],"split_indices":[0,4,1,5,0,7,4,1,7,1,0,0,0,7,1,1,1,7,7,1,1,1,0,0,4,1,1,0,0,0,1,1,8,1,1,1,1,1,0,1,1,1,1,0,5,1,1,1,8,0,1,1,1,1,1,6,1,1,1,1,1,4,1,0,0,0,0,0,0,0,0,0,0,0,0,0,0,0,0,0,0,0,0,0,0,0,0,0,0,0,0,0,0,0,0,0,0,0,0,0,0,0,0,0,0,0,0,0,0,0,0,0,0,0,0,0,0,0,0,0,0,0,0,0,0,0,0],"split_type":[0,0,0,0,0,0,0,0,0,0,0,0,0,0,0,0,0,0,0,0,0,0,0,0,0,0,0,0,0,0,0,0,0,0,0,0,0,0,0,0,0,0,0,0,0,0,0,0,0,0,0,0,0,0,0,0,0,0,0,0,0,0,0,0,0,0,0,0,0,0,0,0,0,0,0,0,0,0,0,0,0,0,0,0,0,0,0,0,0,0,0,0,0,0,0,0,0,0,0,0,0,0,0,0,0,0,0,0,0,0,0,0,0,0,0,0,0,0,0,0,0,0,0,0,0,0,0],"sum_hessian":[3.15159E5,1.69369E5,1.4579E5,1.08279E5,6.109E4,1.24735E5,2.1055E4,1.4518E4,9.3761E4,1.1248E4,4.9842E4,1.11543E5,1.3192E4,1.4164E4,6.891E3,1.855E3,1.2663E4,5.027E4,4.3491E4,9.653E3,1.595E3,4.2311E4,7.531E3,4.7317E4,6.4226E4,6.574E3,6.618E3,1.2142E4,2.022E3,4.583E3,2.308E3,1.217E3,6.38E2,8.966E3,3.697E3,4.2913E4,7.357E3,2.6514E4,1.6977E4,2.393E3,7.26E3,1.072E3,5.23E2,2.9571E4,1.274E4,2.538E3,4.993E3,3.6753E4,1.0564E4,2.3097E4,4.1129E4,4.25E2,6.149E3,5.86E3,7.58E2,7.457E3,4.685E3,1.008E3,1.014E3,6.38E2,3.945E3,6.62E2,1.646E3,1.029E3,1.88E2,6.03E2,3.5E1,2.621E3,6.345E3,6.28E2,3.069E3,1.247E3,4.1666E4,6.37E2,6.72E3,2.0009E4,6.505E3,9.389E3,7.588E3,1.109E3,1.284E3,3.267E3,3.993E3,6.05E2,4.67E2,3.18E2,2.05E2,1.4571E4,1.5E4,4.618E3,8.122E3,2.208E3,3.3E2,4.001E3,9.92E2,2.1268E4,1.5485E4,9.832E3,7.32E2,1.8697E4,4.4E3,3.8924E4,2.205E3,1.07E2,3.18E2,1.884E3,4.265E3,5.744E3,1.16E2,1.14E2,6.44E2,4.883E3,2.574E3,1.577E3,3.108E3,6.49E2,3.59E2,5.39E2,4.75E2,2.18E2,4.2E2,2.606E3,1.339E3,1.4E1,6.48E2,7.8E2,8.66E2],"tree_param":{"num_deleted":"0","num_feature":"9","num_nodes":"127","size_leaf_vector":"1"}},{"base_weights":[9.895183E-1,-2.0885748E2,1.4507974E3,2.4986882E3,-2.9443195E2,4.5318423E3,1.0268154E3,-3.046651E3,7.8930083E3,-5.5116123E3,-2.0986235E2,-4.100939E1,9.169683E3,-3.4662632E3,1.3579878E3,4.783008E2,-5.2254243E3,1.1416554E4,4.1744326E3,-9.045786E3,-6.963551E2,6.538586E3,-3.1999136E2,3.5265798E3,-3.658854E3,2.0136842E4,5.422809E3,-1.5463517E3,-9.01535E3,9.308651E3,1.0546212E3,-1.9396608E3,6.0906074E3,-6.768246E3,2.2416472E3,2.3554025E4,7.978497E3,-1.0259808E3,7.146311E3,-4.5119937E3,-1.1118853E4,4.9931455E3,-6.6563013E3,4.2365547E3,9.362508E3,-4.8675825E3,-1.740664E2,-1.9650554E2,7.100818E3,-1.1654953E4,3.9427048E3,1.450872E3,2.6513217E4,-7.30734E3,1.1509401E4,3.3176326E3,-2.4326128E3,-3.1143408E3,-1.0705401E4,2.6301648E3,1.2274593E4,-1.0083871E4,1.2739454E3,-2.211014E3,-7.463267E1,-2.4894595E2,2.9806462E3,-1.051264E3,-2.2986594E3,1.7302312E3,-2.2873225E2,9.531148E3,3.4267703E3,1.4613527E3,5.747533E3,-9.6231647E2,5.440174E2,1.7627888E3,7.2323633E3,-1.2306561E3,-1.648873E3,-2.9340752E3,-3.7453135E3,-1.3042285E3,4.4590435E3,-1.0793503E3,-2.8893804E3,1.01473737E3,2.092125E3,3.118613E3,1.1331434E3,-1.7688306E2,-2.8424966E3,8.949571E2,-8.5521866E1,-2.2932562E2,6.6009214E3,3.3994778E3,7.569514E2,-1.6716813E3,-4.3300273E3,5.8075653E2,1.9487391E3,2.7780972E3,-1.01840234E3,1.2337042E4,6.3956357E3,-1.1839686E3,-4.4512437E3,-5.3768286E2,5.081275E3,5.081312E2,2.141639E3,2.0918003E3,-8.825372E2,-1.4286506E3,-7.73108E2,-3.7668071E3,-2.4289045E3,1.2903308E3,3.1250656E2,5.1246E3,3.2284343E3,-8.92535E2,-3.7800613E3,3.0082615E3,2.7496036E2],"categories":[],"categories_nodes":[],"categories_segments":[],"categories_sizes":[],"default_left":[0,0,0,0,0,0,0,0,0,0,0,0,0,0,0,0,0,0,0,0,0,0,0,0,0,0,0,0,0,0,0,0,0,0,0,0,0,0,0,0,0,0,0,0,0,0,0,0,0,0,0,0,0,0,0,0,0,0,0,0,0,0,0,0,0,0,0,0,0,0,0,0,0,0,0,0,0,0,0,0,0,0,0,0,0,0,0,0,0,0,0,0,0,0,0,0,0,0,0,0,0,0,0,0,0,0,0,0,0,0,0,0,0,0,0,0,0,0,0,0,0,0,0,0,0,0,0],"id":9,"left_children":[1,3,5,7,9,11,13,15,17,19,21,23,25,27,29,31,33,35,37,39,41,43,45,47,49,51,53,55,57,59,61,63,65,67,69,71,73,75,77,79,81,83,85,87,89,91,93,95,97,99,101,103,105,107,109,111,113,115,117,119,121,123,125,-1,-1,-1,-1,-1,-1,-1,-1,-1,-1,-1,-1,-1,-1,-1,-1,-1,-1,-1,-1,-1,-1,-1,-1,-1,-1,-1,-1,-1,-1,-1,-1,-1,-1,-1,-1,-1,-1,-1,-1,-1,-1,-1,-1,-1,-1,-1,-1,-1,-1,-1,-1,-1,-1,-1,-1,-1,-1,-1,-1,-1,-1,-1,-1],"loss_changes":[9.5883895E10,6.3789634E10,5.2050387E10,2.52343E11,1.1774935E11,1.0222368E11,5.2128756E10,3.1951602E10,5.597895E10,7.243915E10,1.9518274E11,3.1351056E10,9.822531E10,2.560834E10,7.8682956E10,2.1588658E10,2.963402E10,9.140791E10,3.2184631E10,2.3024026E10,6.1171368E10,2.737401E10,1.714792E11,1.6276094E10,7.335004E10,7.252315E10,1.3839165E11,7.71571E9,6.1299835E9,2.3717511E10,7.67896E10,1.0208727E10,1.2753578E10,6.1911613E9,4.675374E9,4.788111E10,5.9381006E10,4.7014543E9,2.8408263E10,2.8884173E8,2.9560668E9,8.51602E10,7.9814287E9,5.4118687E9,1.0881352E10,1.583474E11,8.7750566E10,7.5812787E9,1.2056408E10,9.857098E9,3.1589786E9,5.934641E9,3.3578254E10,1.456896E10,8.725268E10,1.7005005E9,7.2662067E9,1.1079859E8,2.2159565E9,9.775903E8,5.8538394E9,1.0820522E10,9.642143E10,0E0,0E0,0E0,0E0,0E0,0E0,0E0,0E0,0E0,0E0,0E0,0E0,0E0,0E0,0E0,0E0,0E0,0E0,0E0,0E0,0E0,0E0,0E0,0E0,0E0,0E0,0E0,0E0,0E0,0E0,0E0,0E0,0E0,0E0,0E0,0E0,0E0,0E0,0E0,0E0,0E0,0E0,0E0,0E0,0E0,0E0,0E0,0E0,0E0,0E0,0E0,0E0,0E0,0E0,0E0,0E0,0E0,0E0,0E0,0E0,0E0,0E0,0E0,0E0],"parents":[2147483647,0,0,1,1,2,2,3,3,4,4,5,5,6,6,7,7,8,8,9,9,10,10,11,11,12,12,13,13,14,14,15,15,16,16,17,17,18,18,19,19,20,20,21,21,22,22,23,23,24,24,25,25,26,26,27,27,28,28,29,29,30,30,31,31,32,32,33,33,34,34,35,35,36,36,37,37,38,38,39,39,40,40,41,41,42,42,43,43,44,44,45,45,46,46,47,47,48,48,49,49,50,50,51,51,52,52,53,53,54,54,55,55,56,56,57,57,58,58,59,59,60,60,61,61,62,62],"right_children":[2,4,6,8,10,12,14,16,18,20,22,24,26,28,30,32,34,36,38,40,42,44,46,48,50,52,54,56,58,60,62,64,66,68,70,72,74,76,78,80,82,84,86,88,90,92,94,96,98,100,102,104,106,108,110,112,114,116,118,120,122,124,126,-1,-1,-1,-1,-1,-1,-1,-1,-1,-1,-1,-1,-1,-1,-1,-1,-1,-1,-1,-1,-1,-1,-1,-1,-1,-1,-1,-1,-1,-1,-1,-1,-1,-1,-1,-1,-1,-1,-1,-1,-1,-1,-1,-1,-1,-1,-1,-1,-1,-1,-1,-1,-1,-1,-1,-1,-1,-1,-1,-1,-1,-1,-1,-1],"split_conditions":[1.1E1,3E0,9E0,2E0,4E0,5E0,1.3E1,5E0,2.4E1,7E0,5E0,3E0,6E0,1.2E1,1.6E1,4E0,1E1,1.3152791E2,1.3508374E2,1.03681E5,9E0,1.51315E5,7E0,2E0,4E0,9.3188E4,7E0,8E0,5.7197E4,1.03681E5,1.7E1,2E0,1.14533E5,5.7197E4,6.133E1,1.3E1,2E1,1E0,2.04184E5,5.7197E4,5.483E1,8E0,1E1,3.7E1,2.06302E5,6E0,9E0,2.19622E5,2.4E1,1.03681E5,1.51315E5,1.7E1,1.3275667E2,2.00898E5,9.3638E4,6E0,5.326E0,6E0,2.4E1,1.4E1,1.3275667E2,9.3188E4,1.9E1,-2.211014E3,-7.463267E1,-2.4894595E2,2.9806462E3,-1.051264E3,-2.2986594E3,1.7302312E3,-2.2873225E2,9.531148E3,3.4267703E3,1.4613527E3,5.747533E3,-9.6231647E2,5.440174E2,1.7627888E3,7.2323633E3,-1.2306561E3,-1.648873E3,-2.9340752E3,-3.7453135E3,-1.3042285E3,4.4590435E3,-1.0793503E3,-2.8893804E3,1.01473737E3,2.092125E3,3.118613E3,1.1331434E3,-1.7688306E2,-2.8424966E3,8.949571E2,-8.5521866E1,-2.2932562E2,6.6009214E3,3.3994778E3,7.569514E2,-1.6716813E3,-4.3300273E3,5.8075653E2,1.9487391E3,2.7780972E3,-1.01840234E3,1.2337042E4,6.3956357E3,-1.1839686E3,-4.4512437E3,-5.3768286E2,5.081275E3,5.081312E2,2.141639E3,2.0918003E3,-8.825372E2,-1.4286506E3,-7.73108E2,-3.7668071E3,-2.4289045E3,1.2903308E3,3.1250656E2,5.1246E3,3.2284343E3,-8.92535E2,-3.7800613E3,3.0082615E3,2.7496036E2],"split_indices":[8,1,1,1,1,1,1,8,0,8,1,1,1,1,1,8,8,4,4,7,8,7,1,1,1,7,1,0,7,7,1,8,7,7,2,0,0,6,7,7,2,8,8,0,7,1,1,7,0,7,7,0,4,7,7,0,5,0,0,1,4,7,1,0,0,0,0,0,0,0,0,0,0,0,0,0,0,0,0,0,0,0,0,0,0,0,0,0,0,0,0,0,0,0,0,0,0,0,0,0,0,0,0,0,0,0,0,0,0,0,0,0,0,0,0,0,0,0,0,0,0,0,0,0,0,0,0],"split_type":[0,0,0,0,0,0,0,0,0,0,0,0,0,0,0,0,0,0,0,0,0,0,0,0,0,0,0,0,0,0,0,0,0,0,0,0,0,0,0,0,0,0,0,0,0,0,0,0,0,0,0,0,0,0,0,0,0,0,0,0,0,0,0,0,0,0,0,0,0,0,0,0,0,0,0,0,0,0,0,0,0,0,0,0,0,0,0,0,0,0,0,0,0,0,0,0,0,0,0,0,0,0,0,0,0,0,0,0,0,0,0,0,0,0,0,0,0,0,0,0,0,0,0,0,0,0,0],"sum_hessian":[3.15159E5,2.75311E5,3.9848E4,8.434E3,2.66877E5,4.819E3,3.5029E4,4.159E3,4.275E3,4.256E3,2.62621E5,2.427E3,2.392E3,2.404E3,3.2625E4,1.589E3,2.57E3,2.194E3,2.081E3,2.454E3,1.802E3,4.216E3,2.58405E5,1.222E3,1.205E3,6.08E2,1.784E3,1.787E3,6.17E2,1.198E3,3.1427E4,1.111E3,4.78E2,2.13E3,4.4E2,4.83E2,1.711E3,7.57E2,1.324E3,7.71E2,1.683E3,9.22E2,8.8E2,2.324E3,1.892E3,8.033E3,2.50372E5,5.99E2,6.23E2,5.87E2,6.18E2,1.55E2,4.53E2,5.77E2,1.207E3,2.75E2,1.512E3,1.38E2,4.79E2,3.69E2,8.29E2,6.06E2,3.0821E4,2.63E2,8.48E2,1.71E2,3.07E2,4.59E2,1.671E3,2.02E2,2.38E2,2.87E2,1.96E2,1.34E3,3.71E2,4.28E2,3.29E2,1.233E3,9.1E1,5.48E2,2.23E2,8.54E2,8.29E2,4.74E2,4.48E2,4.35E2,4.45E2,1.773E3,5.51E2,1.596E3,2.96E2,4.166E3,3.867E3,8.503E3,2.41869E5,5.85E2,1.4E1,3.23E2,3E2,1.85E2,4.02E2,3.47E2,2.71E2,5.9E1,9.6E1,1.17E2,3.36E2,4E2,1.77E2,3.5E2,8.57E2,1.94E2,8.1E1,7.7E1,1.435E3,3.2E1,1.06E2,2.78E2,2.01E2,1.79E2,1.9E2,1.96E2,6.33E2,1.59E2,4.47E2,1.208E3,2.9613E4],"tree_param":{"num_deleted":"0","num_feature":"9","num_nodes":"127","size_leaf_vector":"1"}},{"base_weights":[8.5960174E-1,-2.8580377E2,6.9329236E2,1.048201E2,-2.315537E3,3.9701105E4,6.4460974E2,-1.3375122E2,9.011641E3,-1.6248987E3,-4.405203E3,9.286093E3,1.2332983E4,2.128128E3,1.4554092E2,1.8124075E2,-3.8213862E3,6.5324133E2,1.1392346E4,-3.377818E3,6.3630884E2,-1.2291678E3,-5.3056865E3,-2.6297493E3,3.17884E3,-1.6508671E3,1.0458142E3,-3.6205734E2,9.07751E3,-3.3382136E3,-8.1063677E3,-1.2109103E3,1.8750575E3,1.9374113E4,9.429828E3,-1.1718558E3,-4.42305E3,5.1719263E3,-1.8277788E3,-1.140249E3,-1.7816989E3,-5.928081E3,-4.3742065E3,-4.1549443E3,1.8370104E3,4.1034637E1,5.2183965E3,-7.3234856E1,-4.1220312E3,2.740697E3,-1.591115E2,1.2469376E2,-5.240562E2,4.231663E3,1.5339575E3,-1.7075555E3,-6.82145E2,-1.3084047E3,-2.585972E3,-2.9943335E1,-6.857622E2,3.4786755E2,7.882231E2,7.977039E3,2.6592258E3,2.2418584E3,3.5846145E3,-1.9606544E3,4.1742136E2,-6.19201E2,-1.4599573E3,1.02987E3,5.2065757E3,-1.7913086E2,-9.2509357E2,-2.7556415E2,-3.8839694E2,-7.342509E2,-4.7813992E2,-2.2986948E3,-1.5967472E3,-1.3443167E3,-8.9237305E2,-3.7569318E2,-1.8652103E3,2.0372614E3,1.5472832E2,4.8457236E2,-4.6020718E2,3.918533E3,9.9536847E2,5.3686084E2,-5.974247E2,-1.6280585E3,-7.95716E2,1.47631E2,2.8331108E3,-1.3473564E3,2.0937581E2],"categories":[],"categories_nodes":[],"categories_segments":[],"categories_sizes":[],"default_left":[0,0,0,0,0,0,0,0,0,0,0,0,0,0,0,0,0,0,0,0,0,0,0,0,0,0,0,0,0,0,0,0,0,0,0,0,0,0,0,0,0,0,0,0,0,0,0,0,0,0,0,0,0,0,0,0,0,0,0,0,0,0,0,0,0,0,0,0,0,0,0,0,0,0,0,0,0,0,0,0,0,0,0,0,0,0,0,0,0,0,0,0,0,0,0,0,0,0,0],"id":10,"left_children":[1,3,5,7,9,11,13,15,17,19,21,-1,-1,23,25,27,29,31,33,35,37,39,41,43,45,47,49,51,53,55,57,59,61,63,65,67,69,71,73,75,77,79,81,83,85,87,89,91,93,95,97,-1,-1,-1,-1,-1,-1,-1,-1,-1,-1,-1,-1,-1,-1,-1,-1,-1,-1,-1,-1,-1,-1,-1,-1,-1,-1,-1,-1,-1,-1,-1,-1,-1,-1,-1,-1,-1,-1,-1,-1,-1,-1,-1,-1,-1,-1,-1,-1],"loss_changes":[6.2557917E10,1.7671894E11,1.7520301E11,3.9718126E11,5.1907756E10,1.4473626E8,6.8232897E10,2.1145505E11,9.7019494E10,1.0717307E11,2.5547276E10,0E0,0E0,1.1598386E11,1.1153108E11,8.1062946E11,2.9633282E10,2.4666883E9,5.926355E10,3.5113566E10,1.31977535E11,9.500083E7,4.009689E9,2.8600451E10,1.2161386E11,8.9756885E10,9.381948E10,1.7022947E11,1.9233846E11,3.2244089E10,2.752979E9,5.1216582E8,3.490066E8,5.6492982E10,1.4935474E10,6.7349017E10,1.0801136E10,8.801532E10,1.182482E10,5.7142784E7,3.0127488E7,4.338729E9,4.0421376E8,1.8723844E10,6.993408E9,1.856625E10,1.7163318E11,5.0216776E10,1.7188733E10,2.877111E11,9.969717E10,0E0,0E0,0E0,0E0,0E0,0E0,0E0,0E0,0E0,0E0,0E0,0E0,0E0,0E0,0E0,0E0,0E0,0E0,0E0,0E0,0E0,0E0,0E0,0E0,0E0,0E0,0E0,0E0,0E0,0E0,0E0,0E0,0E0,0E0,0E0,0E0,0E0,0E0,0E0,0E0,0E0,0E0,0E0,0E0,0E0,0E0,0E0,0E0],"parents":[2147483647,0,0,1,1,2,2,3,3,4,4,5,5,6,6,7,7,8,8,9,9,10,10,13,13,14,14,15,15,16,16,17,17,18,18,19,19,20,20,21,21,22,22,23,23,24,24,25,25,26,26,27,27,28,28,29,29,30,30,31,31,32,32,33,33,34,34,35,35,36,36,37,37,38,38,39,39,40,40,41,41,42,42,43,43,44,44,45,45,46,46,47,47,48,48,49,49,50,50],"right_children":[2,4,6,8,10,12,14,16,18,20,22,-1,-1,24,26,28,30,32,34,36,38,40,42,44,46,48,50,52,54,56,58,60,62,64,66,68,70,72,74,76,78,80,82,84,86,88,90,92,94,96,98,-1,-1,-1,-1,-1,-1,-1,-1,-1,-1,-1,-1,-1,-1,-1,-1,-1,-1,-1,-1,-1,-1,-1,-1,-1,-1,-1,-1,-1,-1,-1,-1,-1,-1,-1,-1,-1,-1,-1,-1,-1,-1,-1,-1,-1,-1,-1,-1],"split_conditions":[6.5E1,4.7E1,6.7E1,4.6E1,5.9E1,3.993E1,8E1,4.1E1,5.7197E4,5.5E1,5.7197E4,9.286093E3,1.2332983E4,5.7197E4,8.7E1,3.8E1,4.5E1,2E0,1.3152791E2,5E1,5.6E1,1.1E1,2.4E1,7.9E1,7.2E1,8.3E1,9.3E1,2.4E1,2.1E1,4.2E1,9.3188E4,6E0,1.3152791E2,1.4E1,1.58114E5,4.9E1,9.3188E4,1.1E1,7E0,1.3152791E2,6E0,1.3152791E2,1.2E1,7.2E1,1E0,7.1E1,1.3114534E2,1E0,2.5E1,9.2E1,9.4E1,1.2469376E2,-5.240562E2,4.231663E3,1.5339575E3,-1.7075555E3,-6.82145E2,-1.3084047E3,-2.585972E3,-2.9943335E1,-6.857622E2,3.4786755E2,7.882231E2,7.977039E3,2.6592258E3,2.2418584E3,3.5846145E3,-1.9606544E3,4.1742136E2,-6.19201E2,-1.4599573E3,1.02987E3,5.2065757E3,-1.7913086E2,-9.2509357E2,-2.7556415E2,-3.8839694E2,-7.342509E2,-4.7813992E2,-2.2986948E3,-1.5967472E3,-1.3443167E3,-8.9237305E2,-3.7569318E2,-1.8652103E3,2.0372614E3,1.5472832E2,4.8457236E2,-4.6020718E2,3.918533E3,9.9536847E2,5.3686084E2,-5.974247E2,-1.6280585E3,-7.95716E2,1.47631E2,2.8331108E3,-1.3473564E3,2.0937581E2],"split_indices":[1,1,1,1,1,2,1,1,7,1,7,0,0,7,1,1,1,6,4,1,1,8,0,1,1,1,1,1,0,1,7,0,4,0,7,1,7,8,8,4,0,4,8,1,6,1,4,6,0,1,1,0,0,0,0,0,0,0,0,0,0,0,0,0,0,0,0,0,0,0,0,0,0,0,0,0,0,0,0,0,0,0,0,0,0,0,0,0,0,0,0,0,0,0,0,0,0,0,0],"split_type":[0,0,0,0,0,0,0,0,0,0,0,0,0,0,0,0,0,0,0,0,0,0,0,0,0,0,0,0,0,0,0,0,0,0,0,0,0,0,0,0,0,0,0,0,0,0,0,0,0,0,0,0,0,0,0,0,0,0,0,0,0,0,0,0,0,0,0,0,0,0,0,0,0,0,0,0,0,0,0,0,0,0,0,0,0,0,0,0,0,0,0,0,0,0,0,0,0,0,0],"sum_hessian":[3.15159E5,2.22886E5,9.2273E4,1.86915E5,3.5971E4,1.14E2,9.2159E4,1.8204E5,4.875E3,2.7037E4,8.934E3,1.9E1,9.5E1,2.3198E4,6.8961E4,1.67715E5,1.4325E4,1.081E3,3.794E3,1.523E4,1.1807E4,1.974E3,6.96E3,4.196E3,1.9002E4,2.3022E4,4.5939E4,1.58063E5,9.652E3,1.2875E4,1.45E3,4.28E2,6.53E2,7.47E2,3.047E3,4.897E3,1.0333E4,4.156E3,7.651E3,1.703E3,2.71E2,4.169E3,2.791E3,3.128E3,1.068E3,7.486E3,1.1516E4,1.4052E4,8.97E3,1.9088E4,2.6851E4,1.01219E5,5.6844E4,4.254E3,5.398E3,4.008E3,8.867E3,1.76E2,1.274E3,2.11E2,2.17E2,3.36E2,3.17E2,4.42E2,3.05E2,1.717E3,1.33E3,1.583E3,3.314E3,1.636E3,8.697E3,3.638E3,5.18E2,3.865E3,3.786E3,7.02E2,1.001E3,5.7E1,2.14E2,1.076E3,3.093E3,2.591E3,2E2,1.3E3,1.828E3,2.24E2,8.44E2,3.744E3,3.742E3,2.245E3,9.271E3,7.129E3,6.923E3,4.75E3,4.22E3,1.4294E4,4.794E3,4.434E3,2.2417E4],"tree_param":{"num_deleted":"0","num_feature":"9","num_nodes":"99","size_leaf_vector":"1"}},{"base_weights":[7.138973E-1,-2.9784778E2,5.2776416E2,8.679047E1,-7.561099E2,1.1404993E3,-1.7720856E2,9.04181E2,-6.4524335E2,-8.807582E2,1.4397439E3,7.3607574E2,3.9986567E3,8.618944E2,-9.180662E2,4.6873517E2,3.5043396E3,-5.125016E2,-1.9438887E3,-2.6097507E1,-1.0504496E3,-7.687026E2,6.0096587E3,1.1922439E3,-2.0187623E3,2.9800427E3,1.0954865E4,3.2605548E2,4.3219126E3,-1.1441012E3,4.0471213E2,2.871362E3,-4.0535114E1,6.6336426E3,2.1051187E3,-6.72298E2,9.441649E2,-1.4364181E3,-4.6369355E3,-7.2964087E2,7.487284E2,-1.2044873E3,-1.7434132E2,-3.5277158E2,-7.199473E3,7.296267E3,8.122797E2,2.6158928E3,-1.1023E2,-1.4245853E3,-6.361918E3,3.2996194E3,-5.957345E3,1.5550256E4,-2.6878684E3,2.2889517E3,-2.4740736E2,6.78698E3,-5.3186047E1,-1.6156864E3,-2.9505664E2,2.6368445E3,-2.1225035E2,2.506652E3,3.7622046E2,1.5273808E2,-6.658593E2,1.6720892E3,8.462337E3,4.869657E1,8.664454E2,-4.0945212E2,-7.865015E1,-1.6663321E2,1.2211853E3,-2.9403085E2,-6.1787695E2,-2.5113494E3,-7.073736E2,2.847778E2,-5.962729E2,9.718219E3,-1.0075466E2,-1.276431E3,-3.4688022E2,-3.139699E2,1.6733136E2,6.259528E2,-2.228234E2,-3.0951992E3,-1.3170757E3,1.8464489E3,5.767924E3,7.391388E2,-6.4594556E2,5.54354E2,2.3914219E3,4.3204422E2,-2.523138E2,-1.5153119E3,-2.8738123E2,-2.8902798E3,-3.9945856E2,8.501266E2,2.8844456E3,-1.700316E3,-2.3248015E3,3.4929124E3,1.2093014E4,-7.7806123E3,-5.3697656E2,1.5267725E3,4.214551E2,8.4314014E2,-2.6018112E2,3.264365E3,8.872937E2,-2.8334875E2,4.3421817E2,-1.2959827E3,-4.4866818E2,6.087913E2,-2.5340013E2,3.8456085E1,3.9121492E3,-1.5124937E2,7.912326E2],"categories":[],"categories_nodes":[],"categories_segments":[],"categories_sizes":[],"default_left":[0,0,0,0,0,0,0,0,0,0,0,0,0,0,0,0,0,0,0,0,0,0,0,0,0,0,0,0,0,0,0,0,0,0,0,0,0,0,0,0,0,0,0,0,0,0,0,0,0,0,0,0,0,0,0,0,0,0,0,0,0,0,0,0,0,0,0,0,0,0,0,0,0,0,0,0,0,0,0,0,0,0,0,0,0,0,0,0,0,0,0,0,0,0,0,0,0,0,0,0,0,0,0,0,0,0,0,0,0,0,0,0,0,0,0,0,0,0,0,0,0,0,0,0,0,0,0],"id":11,"left_children":[1,3,5,7,9,11,13,15,17,19,21,23,25,27,29,31,33,35,37,39,41,43,45,47,49,51,53,55,57,59,61,63,65,67,69,71,73,75,77,79,81,83,85,87,89,91,93,95,97,99,101,103,105,107,109,111,113,115,117,119,121,123,125,-1,-1,-1,-1,-1,-1,-1,-1,-1,-1,-1,-1,-1,-1,-1,-1,-1,-1,-1,-1,-1,-1,-1,-1,-1,-1,-1,-1,-1,-1,-1,-1,-1,-1,-1,-1,-1,-1,-1,-1,-1,-1,-1,-1,-1,-1,-1,-1,-1,-1,-1,-1,-1,-1,-1,-1,-1,-1,-1,-1,-1,-1,-1,-1],"loss_changes":[4.959279E10,3.5463025E10,4.9230856E10,6.545073E10,2.5130254E10,7.047728E10,4.0799334E10,5.851078E10,9.946452E9,1.2599763E10,4.9780396E10,6.7129913E10,5.3521E10,4.089625E10,9.251045E9,5.4164615E10,3.2444498E10,1.2187309E10,7.30624E9,7.84651E9,9.782051E9,8.893701E9,1.0740068E10,8.497945E10,1.957513E10,1.8853315E10,6.054119E10,2.1502695E10,3.1902134E10,1.0579612E10,6.2197325E9,6.8656996E10,4.3748737E10,5.2212474E10,7.7945324E9,1.3400324E10,2.4269711E10,1.2787517E9,7.1970775E9,1.5934423E10,2.3511525E11,9.062416E9,6.9226476E9,2.9742177E9,1.7239726E9,1.7421033E10,1.5724916E9,9.0049675E10,2.71194E10,1.1294499E10,1.5016231E10,1.870463E10,7.441203E7,6.937826E10,5.047082E9,1.0685571E10,2.8024965E10,2.9630964E10,1.4284598E9,5.51211E9,1.2057416E10,2.5523347E10,2.945302E9,0E0,0E0,0E0,0E0,0E0,0E0,0E0,0E0,0E0,0E0,0E0,0E0,0E0,0E0,0E0,0E0,0E0,0E0,0E0,0E0,0E0,0E0,0E0,0E0,0E0,0E0,0E0,0E0,0E0,0E0,0E0,0E0,0E0,0E0,0E0,0E0,0E0,0E0,0E0,0E0,0E0,0E0,0E0,0E0,0E0,0E0,0E0,0E0,0E0,0E0,0E0,0E0,0E0,0E0,0E0,0E0,0E0,0E0,0E0,0E0,0E0,0E0,0E0,0E0],"parents":[2147483647,0,0,1,1,2,2,3,3,4,4,5,5,6,6,7,7,8,8,9,9,10,10,11,11,12,12,13,13,14,14,15,15,16,16,17,17,18,18,19,19,20,20,21,21,22,22,23,23,24,24,25,25,26,26,27,27,28,28,29,29,30,30,31,31,32,32,33,33,34,34,35,35,36,36,37,37,38,38,39,39,40,40,41,41,42,42,43,43,44,44,45,45,46,46,47,47,48,48,49,49,50,50,51,51,52,52,53,53,54,54,55,55,56,56,57,57,58,58,59,59,60,60,61,61,62,62],"right_children":[2,4,6,8,10,12,14,16,18,20,22,24,26,28,30,32,34,36,38,40,42,44,46,48,50,52,54,56,58,60,62,64,66,68,70,72,74,76,78,80,82,84,86,88,90,92,94,96,98,100,102,104,106,108,110,112,114,116,118,120,122,124,126,-1,-1,-1,-1,-1,-1,-1,-1,-1,-1,-1,-1,-1,-1,-1,-1,-1,-1,-1,-1,-1,-1,-1,-1,-1,-1,-1,-1,-1,-1,-1,-1,-1,-1,-1,-1,-1,-1,-1,-1,-1,-1,-1,-1,-1,-1,-1,-1,-1,-1,-1,-1,-1,-1,-1,-1,-1,-1,-1,-1,-1,-1,-1,-1],"split_conditions":[1.84109E5,1.4293762E2,2.1E1,2.4E1,9.199E0,2E1,8.067E0,2.3E1,4.3E1,4E0,7.7E1,1.5E1,8.7E1,9E1,3.3E1,1.1E1,2.4E1,4.1E1,9.1E1,3.8E1,2E0,7.1E1,9.6E1,1.9104115E2,9.1E1,8.3E1,9.6E1,1.4080861E2,9.6E1,2.04184E5,1.7E1,1.8E1,1.23737E5,2.3E1,3.9E1,1.03681E5,7.7E1,3.9E1,9.4E1,1.7E1,3.9E1,2E0,3.5E1,5E0,7.4E1,9.5E1,9.8E1,9E1,3E0,8E0,9.6E1,7.9E1,1.1E1,9.5E1,9.7E1,1.7E1,1.96321E5,3.2E1,2.1109636E2,4E0,2.8E1,1.3E1,9.4E1,2.506652E3,3.7622046E2,1.5273808E2,-6.658593E2,1.6720892E3,8.462337E3,4.869657E1,8.664454E2,-4.0945212E2,-7.865015E1,-1.6663321E2,1.2211853E3,-2.9403085E2,-6.1787695E2,-2.5113494E3,-7.073736E2,2.847778E2,-5.962729E2,9.718219E3,-1.0075466E2,-1.276431E3,-3.4688022E2,-3.139699E2,1.6733136E2,6.259528E2,-2.228234E2,-3.0951992E3,-1.3170757E3,1.8464489E3,5.767924E3,7.391388E2,-6.4594556E2,5.54354E2,2.3914219E3,4.3204422E2,-2.523138E2,-1.5153119E3,-2.8738123E2,-2.8902798E3,-3.9945856E2,8.501266E2,2.8844456E3,-1.700316E3,-2.3248015E3,3.4929124E3,1.2093014E4,-7.7806123E3,-5.3697656E2,1.5267725E3,4.214551E2,8.4314014E2,-2.6018112E2,3.264365E3,8.872937E2,-2.8334875E2,4.3421817E2,-1.2959827E3,-4.4866818E2,6.087913E2,-2.5340013E2,3.8456085E1,3.9121492E3,-1.5124937E2,7.912326E2],"split_indices":[7,4,0,0,5,0,5,0,0,0,1,0,1,1,0,0,1,0,1,1,6,1,1,4,1,1,1,4,1,7,1,1,7,1,1,7,1,1,1,1,1,1,1,1,1,1,1,1,0,1,1,1,8,1,1,1,7,0,4,1,0,1,1,0,0,0,0,0,0,0,0,0,0,0,0,0,0,0,0,0,0,0,0,0,0,0,0,0,0,0,0,0,0,0,0,0,0,0,0,0,0,0,0,0,0,0,0,0,0,0,0,0,0,0,0,0,0,0,0,0,0,0,0,0,0,0,0],"split_type":[0,0,0,0,0,0,0,0,0,0,0,0,0,0,0,0,0,0,0,0,0,0,0,0,0,0,0,0,0,0,0,0,0,0,0,0,0,0,0,0,0,0,0,0,0,0,0,0,0,0,0,0,0,0,0,0,0,0,0,0,0,0,0,0,0,0,0,0,0,0,0,0,0,0,0,0,0,0,0,0,0,0,0,0,0,0,0,0,0,0,0,0,0,0,0,0,0,0,0,0,0,0,0,0,0,0,0,0,0,0,0,0,0,0,0,0,0,0,0,0,0,0,0,0,0,0,0],"sum_hessian":[3.15159E5,2.0119E5,1.13969E5,1.09382E5,9.1808E4,6.0973E4,5.2996E4,5.1678E4,5.7704E4,8.6877E4,4.931E3,5.3416E4,7.557E3,2.2058E4,3.0938E4,4.4266E4,7.412E3,5.2354E4,5.35E3,1.4392E4,7.2485E4,3.325E3,1.606E3,4.5828E4,7.588E3,6.593E3,9.64E2,1.9101E4,2.957E3,2.6423E4,4.515E3,7.741E3,3.6525E4,2.289E3,5.123E3,4.7179E4,5.175E3,4.503E3,8.47E2,7.543E3,6.849E3,6.1646E4,1.0839E4,3.124E3,2.01E2,1.287E3,3.19E2,2.1895E4,2.3933E4,6.676E3,9.12E2,6.366E3,2.27E2,7.21E2,2.43E2,4.318E3,1.4783E4,1.891E3,1.066E3,1.6987E4,9.436E3,9.77E2,3.538E3,1.762E3,5.979E3,2.9168E4,7.357E3,2.183E3,1.06E2,1.472E3,3.651E3,1.7547E4,2.9632E4,3.498E3,1.677E3,2.601E3,1.902E3,3.2E2,5.27E2,3.231E3,4.312E3,2.26E2,6.623E3,9.58E2,6.0688E4,4.946E3,5.893E3,4.3E2,2.694E3,9.4E1,1.07E2,1.176E3,1.11E2,2.05E2,1.14E2,1.915E4,2.745E3,7.667E3,1.6266E4,7.6E2,5.916E3,5.52E2,3.6E2,5.93E3,4.36E2,1.99E2,2.8E1,6.24E2,9.7E1,8E0,2.35E2,1.035E3,3.283E3,2.491E3,1.2292E4,9.13E2,9.78E2,6.69E2,3.97E2,7.21E2,1.6266E4,1.804E3,7.632E3,7.88E2,1.89E2,3.21E3,3.28E2],"tree_param":{"num_deleted":"0","num_feature":"9","num_nodes":"127","size_leaf_vector":"1"}},{"base_weights":[6.143484E-1,-1.6228308E3,9.6775826E1,-2.7263613E3,-4.97236E2,-8.749997E0,1.4048032E3,-1.0989835E3,-3.1600332E3,1.5326639E4,-9.811621E2,1.8419465E3,-6.739777E1,5.0604814E3,9.744905E2,-6.2237683E2,-1.5349929E3,-4.4126284E3,-2.531187E3,1.9249953E4,1.0005414E4,3.6082732E3,-1.1431873E3,-1.9226943E3,5.509493E3,-4.2077407E3,-4.2632E-1,2.291E3,2.1795596E4,-2.5905461E3,1.3001863E3,-1.0619377E3,4.83878E3,-2.2161472E3,-1.15184E3,-1.3896002E3,-6.5299316E3,1.0529111E4,-3.1013738E3,1.7404229E4,1.6182546E4,3.0280188E3,2.4066945E4,-8.676898E3,7.211903E3,-1.8675188E3,-4.410688E2,1.5307866E3,-3.5311377E3,1.2135388E3,7.064939E3,-6.7092017E3,-1.5600897E3,4.4600874E3,-7.34114E1,3.8867866E3,-5.7765454E3,-6.9101987E3,3.473711E4,-1.4790814E3,-6.8355986E3,5.498283E3,8.715334E2,-2.3318532E2,-1.243627E3,9.1973126E2,2.0769897E3,-3.605291E2,-7.863454E2,-2.6897357E2,-4.6103088E2,-1.8912527E3,-4.964967E1,-3.1825955E3,-1.4702751E3,5.518485E3,2.3982864E3,-1.5273315E3,-7.684899E2,4.357538E1,5.742714E3,-3.6479426E3,2.184231E3,2.7999534E3,8.540842E3,-3.9115715E3,-1.7097982E3,4.8243125E3,1.4297904E3,-5.4369543E2,-5.6304424E3,1.664051E2,-6.5897516E2,3.362558E2,5.764871E3,-1.3925469E3,-6.892292E1,1.2659323E2,8.239835E2,3.8576343E3,1.5687863E3,-1.0616761E3,-2.5414387E3,1.02367377E3,-1.6722017E3,9.4013055E2,2.117556E3,-8.899838E2,5.8934097E0,2.2744278E2,4.802424E3,-1.0827228E3,-3.2094282E3,-3.3602756E2,-3.341283E3,9.358506E3,2.607159E4,-3.088104E2,-2.962209E3,-7.535779E2,-2.5477407E3,4.971436E2,6.3865464E3,-1.6057943E3,3.2018146E2],"categories":[],"categories_nodes":[],"categories_segments":[],"categories_sizes":[],"default_left":[0,0,0,0,0,0,0,0,0,0,0,0,0,0,0,0,0,0,0,0,0,0,0,0,0,0,0,0,0,0,0,0,0,0,0,0,0,0,0,0,0,0,0,0,0,0,0,0,0,0,0,0,0,0,0,0,0,0,0,0,0,0,0,0,0,0,0,0,0,0,0,0,0,0,0,0,0,0,0,0,0,0,0,0,0,0,0,0,0,0,0,0,0,0,0,0,0,0,0,0,0,0,0,0,0,0,0,0,0,0,0,0,0,0,0,0,0,0,0,0,0,0,0,0,0],"id":12,"left_children":[1,3,5,7,9,11,13,15,17,19,21,23,25,27,29,31,33,35,37,39,41,43,45,47,49,51,53,55,57,59,61,63,65,67,69,71,73,75,77,79,-1,81,83,85,87,89,91,93,95,97,99,101,103,105,107,109,111,113,115,117,119,121,123,-1,-1,-1,-1,-1,-1,-1,-1,-1,-1,-1,-1,-1,-1,-1,-1,-1,-1,-1,-1,-1,-1,-1,-1,-1,-1,-1,-1,-1,-1,-1,-1,-1,-1,-1,-1,-1,-1,-1,-1,-1,-1,-1,-1,-1,-1,-1,-1,-1,-1,-1,-1,-1,-1,-1,-1,-1,-1,-1,-1,-1,-1],"loss_changes":[4.920069E10,2.1889917E10,4.1069244E10,6.2769766E9,6.683514E10,2.9883798E10,3.4936426E10,3.8847104E8,5.5231447E9,5.2144947E9,6.3009633E9,1.1677635E11,7.399899E10,1.08357075E11,2.3079416E10,2.1583972E9,2.5269197E8,1.501329E10,3.4883715E10,8.5378703E9,1.0915765E10,1.2856957E10,4.1592515E9,2.3190841E10,2.8617654E10,2.812402E10,8.5497496E10,2.5873605E10,1.2357686E11,7.84102E9,3.2766388E10,7.2616685E8,2.2639808E8,1.4105114E8,6.0328E7,5.8223846E9,9.117139E9,3.760894E9,4.803576E9,4.2570301E9,0E0,4.997376E9,2.1343232E9,7.828434E8,4.7826657E9,3.721946E9,7.2644E9,9.599034E9,1.0442007E10,1.3822552E9,3.3381335E10,1.2171715E10,4.123339E10,1.4549049E10,6.956801E10,6.3585087E10,3.502936E9,2.5331497E9,3.960465E10,4.973259E9,2.4501658E9,1.0228521E11,2.0138275E10,0E0,0E0,0E0,0E0,0E0,0E0,0E0,0E0,0E0,0E0,0E0,0E0,0E0,0E0,0E0,0E0,0E0,0E0,0E0,0E0,0E0,0E0,0E0,0E0,0E0,0E0,0E0,0E0,0E0,0E0,0E0,0E0,0E0,0E0,0E0,0E0,0E0,0E0,0E0,0E0,0E0,0E0,0E0,0E0,0E0,0E0,0E0,0E0,0E0,0E0,0E0,0E0,0E0,0E0,0E0,0E0,0E0,0E0,0E0,0E0,0E0,0E0],"parents":[2147483647,0,0,1,1,2,2,3,3,4,4,5,5,6,6,7,7,8,8,9,9,10,10,11,11,12,12,13,13,14,14,15,15,16,16,17,17,18,18,19,19,20,20,21,21,22,22,23,23,24,24,25,25,26,26,27,27,28,28,29,29,30,30,31,31,32,32,33,33,34,34,35,35,36,36,37,37,38,38,39,39,41,41,42,42,43,43,44,44,45,45,46,46,47,47,48,48,49,49,50,50,51,51,52,52,53,53,54,54,55,55,56,56,57,57,58,58,59,59,60,60,61,61,62,62],"right_children":[2,4,6,8,10,12,14,16,18,20,22,24,26,28,30,32,34,36,38,40,42,44,46,48,50,52,54,56,58,60,62,64,66,68,70,72,74,76,78,80,-1,82,84,86,88,90,92,94,96,98,100,102,104,106,108,110,112,114,116,118,120,122,124,-1,-1,-1,-1,-1,-1,-1,-1,-1,-1,-1,-1,-1,-1,-1,-1,-1,-1,-1,-1,-1,-1,-1,-1,-1,-1,-1,-1,-1,-1,-1,-1,-1,-1,-1,-1,-1,-1,-1,-1,-1,-1,-1,-1,-1,-1,-1,-1,-1,-1,-1,-1,-1,-1,-1,-1,-1,-1,-1,-1,-1,-1],"split_conditions":[2E0,3.8E1,1.2E1,9.3188E4,3.9E1,3E0,8E0,1.4E1,1.3E1,2.7E1,4.1E1,2E0,4E0,7E0,1.3E1,1.3E1,2.1E1,6E0,1.4E1,2.6E1,2E0,5.7197E4,7.9E1,5E0,9.3188E4,7E0,5E0,6E0,1.03681E5,1.2E1,1.9E1,1.2E1,3.7E1,1.303849E2,2.9E1,2E0,8E0,1.303849E2,2E1,1.88E1,1.6182546E4,4.1062E4,1.2785913E2,2E0,1.303849E2,7.7E1,9.3E1,2.19622E5,1E1,4.1062E4,1.23737E5,1.14533E5,9E0,1.84109E5,7E0,5E0,2.00898E5,3E1,5.357E1,2.07499E5,9.3188E4,1.8E1,2.1E1,-2.3318532E2,-1.243627E3,9.1973126E2,2.0769897E3,-3.605291E2,-7.863454E2,-2.6897357E2,-4.6103088E2,-1.8912527E3,-4.964967E1,-3.1825955E3,-1.4702751E3,5.518485E3,2.3982864E3,-1.5273315E3,-7.684899E2,4.357538E1,5.742714E3,-3.6479426E3,2.184231E3,2.7999534E3,8.540842E3,-3.9115715E3,-1.7097982E3,4.8243125E3,1.4297904E3,-5.4369543E2,-5.6304424E3,1.664051E2,-6.5897516E2,3.362558E2,5.764871E3,-1.3925469E3,-6.892292E1,1.2659323E2,8.239835E2,3.8576343E3,1.5687863E3,-1.0616761E3,-2.5414387E3,1.02367377E3,-1.6722017E3,9.4013055E2,2.117556E3,-8.899838E2,5.8934097E0,2.2744278E2,4.802424E3,-1.0827228E3,-3.2094282E3,-3.3602756E2,-3.341283E3,9.358506E3,2.607159E4,-3.088104E2,-2.962209E3,-7.535779E2,-2.5477407E3,4.971436E2,6.3865464E3,-1.6057943E3,3.2018146E2],"split_indices":[8,1,8,7,1,1,1,1,1,0,1,1,1,1,1,1,1,1,1,0,6,7,1,8,7,8,1,1,7,1,1,1,0,4,1,1,1,4,1,2,0,7,4,6,4,1,1,7,8,7,7,7,8,7,1,1,7,0,2,7,7,1,1,0,0,0,0,0,0,0,0,0,0,0,0,0,0,0,0,0,0,0,0,0,0,0,0,0,0,0,0,0,0,0,0,0,0,0,0,0,0,0,0,0,0,0,0,0,0,0,0,0,0,0,0,0,0,0,0,0,0,0,0,0,0],"split_type":[0,0,0,0,0,0,0,0,0,0,0,0,0,0,0,0,0,0,0,0,0,0,0,0,0,0,0,0,0,0,0,0,0,0,0,0,0,0,0,0,0,0,0,0,0,0,0,0,0,0,0,0,0,0,0,0,0,0,0,0,0,0,0,0,0,0,0,0,0,0,0,0,0,0,0,0,0,0,0,0,0,0,0,0,0,0,0,0,0,0,0,0,0,0,0,0,0,0,0,0,0,0,0,0,0,0,0,0,0,0,0,0,0,0,0,0,0,0,0,0,0,0,0,0,0],"sum_hessian":[3.15159E5,1.7623E4,2.97536E5,8.898E3,8.725E3,2.75325E5,2.2211E4,1.873E3,7.025E3,2.58E2,8.467E3,8.456E3,2.66869E5,2.338E3,1.9873E4,8.96E2,9.77E2,2.346E3,4.679E3,1.47E2,1.11E2,2.88E2,8.179E3,4.173E3,4.283E3,4.247E3,2.62622E5,2.007E3,3.31E2,1.663E3,1.821E4,8.3E2,6.6E1,3.5E2,6.27E2,9.67E2,1.379E3,1.95E2,4.484E3,1.41E2,6E0,7.5E1,3.6E1,6.5E1,2.23E2,4.025E3,4.154E3,1.326E3,2.847E3,1.139E3,3.144E3,2.183E3,2.064E3,4.227E3,2.58395E5,1.676E3,3.31E2,1.03E2,2.28E2,1.319E3,3.44E2,1.686E3,1.6524E4,7.61E2,6.9E1,3.7E1,2.9E1,1.01E2,2.49E2,3.79E2,2.48E2,1.92E2,7.75E2,3.92E2,9.87E2,4.6E1,1.49E2,9.55E2,3.529E3,1.3E1,1.28E2,1.6E1,5.9E1,9E0,2.7E1,2.5E1,4E1,4.7E1,1.76E2,4.013E3,1.2E1,2.651E3,1.503E3,1.297E3,2.9E1,2.13E3,7.17E2,7.52E2,3.87E2,7.55E2,2.389E3,7.81E2,1.402E3,9.22E2,1.142E3,2.8E3,1.427E3,8.051E3,2.50344E5,1.333E3,3.43E2,2.31E2,1E2,4.4E1,5.9E1,2.15E2,1.3E1,1.253E3,6.6E1,9.6E1,2.48E2,1.357E3,3.29E2,5.03E2,1.6021E4],"tree_param":{"num_deleted":"0","num_feature":"9","num_nodes":"125","size_leaf_vector":"1"}},{"base_weights":[6.3615155E-1,-1.0581392E2,7.3608704E2,4.1436563E2,-2.5971002E2,-5.9825354E2,1.2149685E3,-5.7900397E2,4.395488E3,-2.3900989E3,-6.1431526E1,-1.9419796E3,-4.277243E2,4.262762E3,8.7686884E2,6.784478E1,-7.6815703E3,1.0050356E4,1.5414313E3,-7.045769E1,-3.0873704E3,4.0896636E3,-2.2646507E2,-2.8266348E3,-1.3828944E2,-2.6483734E2,-2.0194651E3,1.752285E3,1.9375605E4,-2.3970798E3,1.1593391E3,3.0788626E2,-2.3049324E3,-2.9916597E3,-8.956502E3,5.2091943E3,1.2172996E4,2.7757097E3,-3.233836E3,7.804632E2,-1.228189E3,-4.837464E3,-1.8845361E3,1.0430983E3,6.985626E3,-1.583089E3,1.1536586E2,-1.919427E3,-4.675407E3,4.8867515E3,-1.529137E3,-3.8537067E2,6.082385E3,-4.31657E3,-1.1128677E3,3.1226768E3,-5.0228237E3,-1.3450234E4,2.1682652E4,-1.3358982E3,-6.5564663E3,7.9879062E3,9.178331E2,-1.3477847E2,6.164357E2,-1.1684409E3,-2.7354242E2,-6.60936E2,-1.0471077E3,-3.1548254E3,-1.9643567E3,8.2874005E2,1.8597955E3,4.9788247E3,2.8921023E3,-5.471045E2,1.5283802E3,5.460703E0,-1.9299601E3,-2.8964584E2,6.276634E2,-2.2975793E2,-5.642871E2,-1.6593182E3,-4.0076553E1,-7.036366E2,-2.9664868E2,-1.3844714E1,8.3241455E2,-3.3582266E2,2.7584963E3,-1.4231308E2,-6.1944653E2,2.3197742E3,-1.8845627E1,-3.1950586E2,-7.929069E2,-4.237986E3,-6.7689545E2,2.9543826E2,2.4061719E3,-1.231323E3,3.371899E2,-9.111012E1,-1.3886189E3,8.8073834E2,4.4970225E3,-8.6943665E2,-1.5775632E3,-5.6108276E2,1.640227E2,-8.921442E1,4.9212197E3,-2.6100276E3,-3.860688E2,-5.3433027E3,-1.1459222E3,1.077251E4,5.2438604E3,-2.622676E2,-2.239301E3,-2.4817102E3,-1.2893778E3,1.6345782E3,3.161586E3,-2.885592E3,3.334829E2],"categories":[],"categories_nodes":[],"categories_segments":[],"categories_sizes":[],"default_left":[0,0,0,0,0,0,0,0,0,0,0,0,0,0,0,0,0,0,0,0,0,0,0,0,0,0,0,0,0,0,0,0,0,0,0,0,0,0,0,0,0,0,0,0,0,0,0,0,0,0,0,0,0,0,0,0,0,0,0,0,0,0,0,0,0,0,0,0,0,0,0,0,0,0,0,0,0,0,0,0,0,0,0,0,0,0,0,0,0,0,0,0,0,0,0,0,0,0,0,0,0,0,0,0,0,0,0,0,0,0,0,0,0,0,0,0,0,0,0,0,0,0,0,0,0,0,0],"id":13,"left_children":[1,3,5,7,9,11,13,15,17,19,21,23,25,27,29,31,33,35,37,39,41,43,45,47,49,51,53,55,57,59,61,63,65,67,69,71,73,75,77,79,81,83,85,87,89,91,93,95,97,99,101,103,105,107,109,111,113,115,117,119,121,123,125,-1,-1,-1,-1,-1,-1,-1,-1,-1,-1,-1,-1,-1,-1,-1,-1,-1,-1,-1,-1,-1,-1,-1,-1,-1,-1,-1,-1,-1,-1,-1,-1,-1,-1,-1,-1,-1,-1,-1,-1,-1,-1,-1,-1,-1,-1,-1,-1,-1,-1,-1,-1,-1,-1,-1,-1,-1,-1,-1,-1,-1,-1,-1,-1],"loss_changes":[2.4673577E10,2.2039822E10,2.546388E10,2.4858077E11,8.974387E10,2.4109158E9,3.0214447E10,2.311161E11,2.025652E11,2.92589E10,1.331566E11,1.8904468E9,2.421342E9,1.1105568E11,2.4415472E10,2.6261641E10,2.5080349E10,4.3198743E10,4.91827E10,4.1208044E9,2.9270327E10,6.556332E10,8.6689595E10,1.3244165E9,2.740197E9,6.4861583E9,1.8007667E9,2.3338484E10,3.1871336E10,9.247116E9,4.0070062E10,5.5383384E10,9.378712E9,3.4583603E8,1.233127E10,3.0958715E9,3.2617497E10,7.072147E10,1.7833353E10,5.523802E9,5.3333786E8,1.8481865E10,3.4016154E9,6.8336824E9,6.823577E10,2.0093575E10,2.0266133E11,3.2794662E8,5.9354527E9,1.0314843E9,2.1021796E9,2.8812493E9,4.3845494E9,3.1211418E8,7.8413485E8,9.493919E10,5.79998E9,1.1078656E9,2.2691365E10,4.724121E9,1.6153784E9,5.3185413E9,4.7935988E10,0E0,0E0,0E0,0E0,0E0,0E0,0E0,0E0,0E0,0E0,0E0,0E0,0E0,0E0,0E0,0E0,0E0,0E0,0E0,0E0,0E0,0E0,0E0,0E0,0E0,0E0,0E0,0E0,0E0,0E0,0E0,0E0,0E0,0E0,0E0,0E0,0E0,0E0,0E0,0E0,0E0,0E0,0E0,0E0,0E0,0E0,0E0,0E0,0E0,0E0,0E0,0E0,0E0,0E0,0E0,0E0,0E0,0E0,0E0,0E0,0E0,0E0,0E0,0E0],"parents":[2147483647,0,0,1,1,2,2,3,3,4,4,5,5,6,6,7,7,8,8,9,9,10,10,11,11,12,12,13,13,14,14,15,15,16,16,17,17,18,18,19,19,20,20,21,21,22,22,23,23,24,24,25,25,26,26,27,27,28,28,29,29,30,30,31,31,32,32,33,33,34,34,35,35,36,36,37,37,38,38,39,39,40,40,41,41,42,42,43,43,44,44,45,45,46,46,47,47,48,48,49,49,50,50,51,51,52,52,53,53,54,54,55,55,56,56,57,57,58,58,59,59,60,60,61,61,62,62],"right_children":[2,4,6,8,10,12,14,16,18,20,22,24,26,28,30,32,34,36,38,40,42,44,46,48,50,52,54,56,58,60,62,64,66,68,70,72,74,76,78,80,82,84,86,88,90,92,94,96,98,100,102,104,106,108,110,112,114,116,118,120,122,124,126,-1,-1,-1,-1,-1,-1,-1,-1,-1,-1,-1,-1,-1,-1,-1,-1,-1,-1,-1,-1,-1,-1,-1,-1,-1,-1,-1,-1,-1,-1,-1,-1,-1,-1,-1,-1,-1,-1,-1,-1,-1,-1,-1,-1,-1,-1,-1,-1,-1,-1,-1,-1,-1,-1,-1,-1,-1,-1,-1,-1,-1,-1,-1,-1],"split_conditions":[1.1E1,1.7E1,1.03681E5,1.3E1,2.2E1,1E0,8E0,1.2E1,1.4E1,1.8E1,2.4E1,7.7E1,9.3E1,7E0,1.3E1,1.1E1,5.7197E4,1.03681E5,9E0,1.920116E2,2E1,2.3E1,3.4E1,3.6E1,8.2E1,9.2E1,9.5E1,6E0,2.732E0,1.2E1,1.6E1,8E0,6.444E1,1.3152791E2,2.4E1,1.7E1,1.5E1,4E0,1.6E1,1.3152791E2,7.574E0,1E1,1.84109E5,1.84109E5,9.3638E4,2.7E1,3.5E1,1.2E1,4.1E1,3.4E1,9.3E1,9.1E1,3.9E1,1.2E1,5.447E1,5E0,2.1E1,3.2E1,1.3275667E2,2.07499E5,2.4E1,1.4E1,1.7E1,-1.3477847E2,6.164357E2,-1.1684409E3,-2.7354242E2,-6.60936E2,-1.0471077E3,-3.1548254E3,-1.9643567E3,8.2874005E2,1.8597955E3,4.9788247E3,2.8921023E3,-5.471045E2,1.5283802E3,5.460703E0,-1.9299601E3,-2.8964584E2,6.276634E2,-2.2975793E2,-5.642871E2,-1.6593182E3,-4.0076553E1,-7.036366E2,-2.9664868E2,-1.3844714E1,8.3241455E2,-3.3582266E2,2.7584963E3,-1.4231308E2,-6.1944653E2,2.3197742E3,-1.8845627E1,-3.1950586E2,-7.929069E2,-4.237986E3,-6.7689545E2,2.9543826E2,2.4061719E3,-1.231323E3,3.371899E2,-9.111012E1,-1.3886189E3,8.8073834E2,4.4970225E3,-8.6943665E2,-1.5775632E3,-5.6108276E2,1.640227E2,-8.921442E1,4.9212197E3,-2.6100276E3,-3.860688E2,-5.3433027E3,-1.1459222E3,1.077251E4,5.2438604E3,-2.622676E2,-2.239301E3,-2.4817102E3,-1.2893778E3,1.6345782E3,3.161586E3,-2.885592E3,3.334829E2],"split_indices":[8,1,7,1,1,6,1,1,1,1,1,1,1,1,1,1,7,7,8,4,1,1,1,1,1,1,1,1,3,1,1,1,2,4,0,0,0,8,1,4,5,8,7,7,7,1,1,8,1,0,1,1,0,8,2,1,0,0,4,7,0,1,1,0,0,0,0,0,0,0,0,0,0,0,0,0,0,0,0,0,0,0,0,0,0,0,0,0,0,0,0,0,0,0,0,0,0,0,0,0,0,0,0,0,0,0,0,0,0,0,0,0,0,0,0,0,0,0,0,0,0,0,0,0,0,0,0],"split_type":[0,0,0,0,0,0,0,0,0,0,0,0,0,0,0,0,0,0,0,0,0,0,0,0,0,0,0,0,0,0,0,0,0,0,0,0,0,0,0,0,0,0,0,0,0,0,0,0,0,0,0,0,0,0,0,0,0,0,0,0,0,0,0,0,0,0,0,0,0,0,0,0,0,0,0,0,0,0,0,0,0,0,0,0,0,0,0,0,0,0,0,0,0,0,0,0,0,0,0,0,0,0,0,0,0,0,0,0,0,0,0,0,0,0,0,0,0,0,0,0,0,0,0,0,0,0,0],"sum_hessian":[3.15159E5,2.75311E5,3.9848E4,6.2855E4,2.12456E5,1.0524E4,2.9324E4,5.0304E4,1.2551E4,1.8089E4,1.94367E5,1.184E3,9.34E3,2.927E3,2.6397E4,4.6106E4,4.198E3,4.209E3,8.342E3,4.181E3,1.3908E4,7.431E3,1.86936E5,7.94E2,3.9E2,8.474E3,8.66E2,2.511E3,4.16E2,2.096E3,2.4301E4,4.1871E4,4.235E3,8.98E2,3.3E3,1.284E3,2.925E3,6.629E3,1.713E3,2.41E3,1.771E3,5.664E3,8.244E3,3.622E3,3.809E3,3.7622E4,1.49314E5,5.34E2,2.6E2,8.4E1,3.06E2,8.317E3,1.57E2,2.44E2,6.22E2,2.089E3,4.22E2,2.7E1,3.89E2,1.671E3,4.25E2,8.29E2,2.3472E4,2.9211E4,1.266E4,1.977E3,2.258E3,3.5E2,5.48E2,2.001E3,1.299E3,3.71E2,9.13E2,1.063E3,1.862E3,2.222E3,4.407E3,8.5E2,8.63E2,1.034E3,1.376E3,1.038E3,7.33E2,4.936E3,7.28E2,5.442E3,2.802E3,2.224E3,1.398E3,8.16E2,2.993E3,1.1396E4,2.6226E4,3.412E3,1.45902E5,2.46E2,2.88E2,5.2E1,2.08E2,3.8E1,4.6E1,1.55E2,1.51E2,8.161E3,1.56E2,1.17E2,4E1,9.9E1,1.45E2,4.27E2,1.95E2,1.662E3,4.27E2,2.12E2,2.1E2,1.8E1,9E0,8.7E1,3.02E2,1.555E3,1.16E2,2.4E2,1.85E2,4.17E2,4.12E2,4.23E2,2.3049E4],"tree_param":{"num_deleted":"0","num_feature":"9","num_nodes":"127","size_leaf_vector":"1"}},{"base_weights":[4.6937075E-1,1.5267104E3,-4.7775204E1,-1.0753931E3,4.0541414E3,-3.2378428E3,3.6206713E0,2.736928E2,-2.8953958E3,6.219704E3,1.7632341E3,-4.8910767E3,-1.0625264E3,2.317312E3,-7.2764946E1,-4.3570724E1,1.0407538E4,-8.5705865E2,-3.791539E3,3.8058477E3,1.6868826E4,-1.1511277E3,4.63484E3,-2.0749827E3,-6.029968E3,-4.578924E3,3.576557E3,2.1006646E3,1.1142681E4,-5.248705E3,7.508617E0,-2.0100719E3,1.0004135E3,7.5888184E3,3.5884438E4,-2.9694026E3,-2.6296414E2,-2.7655713E3,-6.3585166E3,1.9530597E3,1.1344845E4,9.9499036E2,2.01647E4,-8.167031E3,3.8907678E2,1.3212302E3,9.450085E3,-1.7267545E3,-4.4205425E3,-5.1295625E3,-9.537492E3,-2.2312505E3,-5.9122095E3,9.809986E3,-1.720887E3,3.1501255E3,1.0397327E3,3.7933738E3,1.9125621E4,-3.2246973E3,-9.789288E3,2.1539683E3,-6.776893E1,-1.1613324E3,-1.4191205E2,-1.2201459E3,4.598082E2,7.3002423E2,4.3804365E3,5.4791E3,1.4681787E4,-1.3581931E3,-7.9366425E2,-9.54166E2,6.61299E1,7.149926E2,-9.4406036E2,-2.9691191E3,-1.3267577E3,3.0827E3,-1.6102391E2,2.555625E3,5.6539424E3,1.2313074E3,1.6479434E2,1.0380204E4,5.233775E3,-1.4318356E3,-2.8129922E3,1.6955277E3,-4.5092664E2,1.450316E2,1.2912318E3,5.4682847E3,2.0382266E3,1.3745184E3,-5.5339355E2,-1.159759E3,-1.5275132E3,-2.7774521E3,-1.448553E3,-2.1511897E3,-3.8148699E3,-7.080717E2,-9.524561E0,-2.0901794E3,-1.2956674E3,-1.9635642E3,4.6325073E3,-1.8175266E3,1.891838E2,5.815834E2,1.4196976E3,1.2447795E3,-3.1243378E2,5.734846E2,1.6155515E3,4.3501074E3,1.3617831E4,-1.2511842E2,-1.5447137E3,-3.5022607E3,-1.1296936E3,-3.5796036E2,1.052463E3,-5.4044336E2,1.8565855E1],"categories":[],"categories_nodes":[],"categories_segments":[],"categories_sizes":[],"default_left":[0,0,0,0,0,0,0,0,0,0,0,0,0,0,0,0,0,0,0,0,0,0,0,0,0,0,0,0,0,0,0,0,0,0,0,0,0,0,0,0,0,0,0,0,0,0,0,0,0,0,0,0,0,0,0,0,0,0,0,0,0,0,0,0,0,0,0,0,0,0,0,0,0,0,0,0,0,0,0,0,0,0,0,0,0,0,0,0,0,0,0,0,0,0,0,0,0,0,0,0,0,0,0,0,0,0,0,0,0,0,0,0,0,0,0,0,0,0,0,0,0,0,0,0,0,0,0],"id":14,"left_children":[1,3,5,7,9,11,13,15,17,19,21,23,25,27,29,31,33,35,37,39,41,43,45,47,49,51,53,55,57,59,61,63,65,67,69,71,73,75,77,79,81,83,85,87,89,91,93,95,97,99,101,103,105,107,109,111,113,115,117,119,121,123,125,-1,-1,-1,-1,-1,-1,-1,-1,-1,-1,-1,-1,-1,-1,-1,-1,-1,-1,-1,-1,-1,-1,-1,-1,-1,-1,-1,-1,-1,-1,-1,-1,-1,-1,-1,-1,-1,-1,-1,-1,-1,-1,-1,-1,-1,-1,-1,-1,-1,-1,-1,-1,-1,-1,-1,-1,-1,-1,-1,-1,-1,-1,-1,-1],"loss_changes":[2.3206201E10,6.3514935E10,5.008932E10,1.1685755E10,2.4293474E10,1.7415311E10,5.3136814E10,8.790536E9,3.6975258E9,6.4662135E10,1.9940049E10,8.813769E9,3.4159198E10,1.8348933E10,1.2093E11,5.446557E9,5.688096E9,7.7727706E8,3.6879421E9,2.866845E10,2.4307876E10,1.2786587E10,1.9134527E10,6.408983E8,6.137979E9,3.7147812E9,2.9835067E10,1.0440479E10,1.3421339E10,4.0818754E10,4.631049E10,2.6298028E9,4.6807695E9,2.7120947E9,